%YAML:1.0
---
opencv_ml_svm:
   format: 3
   svmType: C_SVC
   kernel:
      type: LINEAR
   C: 1.
   term_criteria: { iterations:100 }
   var_count: 86
   class_count: 5
   class_labels: !!opencv-matrix
      rows: 5
      cols: 1
      dt: i
      data: [ 0, 1, 2, 3, 4 ]
   sv_total: 10
   support_vectors:
      - [ -1.43995835e-03, -2.43133819e-03, -7.47678848e-03,
          -1.10622058e-02, 3.97375189e-02, 7.29935169e-02,
          9.15599801e-03, -6.89920329e-04, -2.91061727e-03,
          -6.31572958e-03, 5.55501617e-02, 2.86439676e-02,
          1.19444160e-02, 5.38841402e-03, 6.05882099e-03, 1.93777755e-02,
          9.04197320e-02, 3.67688745e-01, 6.35375559e-01, 7.21215129e-01,
          6.51485384e-01, 2.64004827e-01, 1.27681524e-01, 1.69618130e-01,
          3.23507428e-01, -1.72752932e-01, -1.02194875e-01,
          3.63727845e-02, 2.00689942e-01, 3.32159936e-01, 2.77404040e-01,
          2.63890028e-01, 2.69732773e-01, 3.59261930e-01, 4.80524957e-01,
          -1.74133077e-01, -7.91981518e-02, -8.61893818e-02,
          -1.44851640e-01, -1.95541561e-01, -1.60589561e-01,
          -1.29133821e-01, -1.31221175e-01, -1.48744076e-01,
          -1.27080172e-01, -1.81170672e-01, -2.28703916e-01,
          -2.00708896e-01, -1.03742220e-01, -3.30847991e-03,
          -9.77694243e-03, -1.67744886e-02, -3.15188132e-02,
          -1.94174591e-02, -3.61945331e-02, -6.20084442e-02,
          -4.68447916e-02, -5.27764745e-02, -3.93368118e-02,
          -2.93574743e-02, -2.77490970e-02, -4.35857289e-02,
          -6.24691062e-02, 1.16235279e-01, -4.61954027e-02,
          -9.80451256e-02, -1.08658530e-01, -1.69682965e-01,
          -2.64697403e-01, -2.75107086e-01, -2.28761792e-01,
          2.06077114e-01, 2.06077114e-01, 2.06077114e-01, 2.06077114e-01,
          2.06077114e-01, 2.06077114e-01, 2.06077114e-01, 2.06077114e-01,
          2.06077114e-01, 2.06077114e-01, 2.06077114e-01, 2.06077114e-01,
          2.06077114e-01, 2.06077114e-01, 2.06077114e-01 ]
      - [ 6.03835844e-03, 2.78828270e-03, 5.05089702e-04,
          -2.44715880e-03, 5.16504189e-03, 5.90831414e-02,
          4.48744651e-03, -2.20581680e-03, -3.56675079e-03,
          -7.24022649e-03, 3.12658809e-02, 3.84894642e-03,
          -5.91172092e-03, -2.46359874e-03, -1.11513380e-02,
          8.14052001e-02, 9.53166783e-02, 1.30375221e-01, 1.83819979e-01,
          2.48919889e-01, 2.91063011e-01, 2.18730196e-01, 2.07861394e-01,
          2.89761811e-01, 4.91256297e-01, -2.48157755e-02,
          5.22302464e-03, 3.51805463e-02, 1.14230171e-01, 1.96828693e-01,
          2.12226152e-01, 2.48116732e-01, 2.81342924e-01, 3.38749975e-01,
          3.95914406e-01, -1.11879475e-01, -1.24410816e-01,
          -1.79147005e-01, -3.05840224e-01, -3.50917548e-01,
          -2.46667743e-01, -2.18869880e-01, -1.86077893e-01,
          -1.75551087e-01, -1.55734137e-01, -8.71077999e-02,
          -5.55438399e-02, -3.98388393e-02, -1.18202940e-02,
          -7.89979007e-03, -1.29037676e-02, -5.97775169e-03,
          -7.57515384e-03, -5.16455946e-03, -4.93202452e-03,
          -1.98681792e-03, -1.43901361e-02, -3.41656692e-02,
          -2.15269644e-02, -2.66855191e-02, -1.33337071e-02,
          -5.38363960e-03, -3.90893361e-03, 4.11878526e-03,
          -1.07069816e-02, -3.03733610e-02, -7.31340498e-02,
          -2.07228735e-01, -3.01372170e-01, -4.07250464e-01,
          3.12795132e-01, -1.76660314e-01, -1.76660314e-01,
          -1.76660314e-01, -1.76660314e-01, -1.76660314e-01,
          -1.76660314e-01, -1.76660314e-01, -1.76660314e-01,
          -1.76660314e-01, -1.76660314e-01, -1.76660314e-01,
          -1.76660314e-01, -1.76660314e-01, -1.76660314e-01,
          -1.76660314e-01 ]
      - [ 2.09234725e-03, -2.89457210e-04, -4.87177493e-03,
          -2.21518278e-02, -5.71181402e-02, 1.62653737e-02,
          -3.18716303e-03, -5.09945955e-03, -7.75649399e-03,
          -2.11845934e-02, 2.26356108e-02, 7.63862068e-03,
          5.04165000e-05, -2.32076249e-03, -2.32494017e-03,
          -1.68802947e-01, -1.82749733e-01, -1.61799595e-01,
          8.57356656e-03, 1.71471223e-01, 1.38803944e-01, 1.17719553e-01,
          1.24787383e-01, 2.00402111e-01, 3.67328167e-01,
          -3.11157703e-01, -3.26389700e-01, -3.01517159e-01,
          -2.17997462e-01, -4.24968079e-02, 7.23027289e-02,
          1.94624454e-01, 2.21824512e-01, 1.91611841e-01, 1.74968109e-01,
          -1.06616579e-02, -5.39229857e-03, -3.97806102e-03,
          -3.16696777e-03, 1.34983085e-04, 3.18040344e-04,
          2.06935010e-03, 2.64490861e-03, 3.38692986e-03, 2.61824904e-03,
          4.02083201e-03, 3.01053119e-03, 2.46267300e-03, 2.58156541e-03,
          -1.44801650e-03, -4.14026639e-04, -2.56743282e-04,
          -3.31779884e-04, 4.84549004e-04, 2.92719156e-03,
          4.29047598e-03, 1.44891048e-04, -3.09964416e-05,
          3.64967214e-04, 4.79865557e-04, 4.61900025e-04, 1.61054707e-03,
          1.25358149e-03, -5.54329790e-02, -5.34667857e-02,
          -5.65751567e-02, -5.27359471e-02, -6.70252591e-02,
          -6.25545159e-02, -4.72832136e-02, -1.56699307e-02,
          -3.59766781e-01, -3.59766781e-01, -3.59766781e-01,
          -3.59766781e-01, -3.59766781e-01, -3.59766781e-01,
          -3.59766781e-01, -3.59766781e-01, -3.59766781e-01,
          -3.59766781e-01, -3.59766781e-01, -3.59766781e-01,
          -3.59766781e-01, -3.59766781e-01, -3.59766781e-01 ]
      - [ -1.15020745e-01, -9.05277580e-02, -7.64884427e-02,
          -1.79367483e-01, -2.03491151e-01, -2.06031933e-01,
          -6.45469576e-02, -8.61986876e-02, -1.00972615e-01,
          -3.00796449e-01, 2.63012685e-02, -3.91469821e-02,
          -4.75924313e-02, -3.07595767e-02, -4.31742072e-02,
          1.57161996e-01, 1.93199128e-01, 2.76777327e-01, 3.54222268e-01,
          3.56366962e-01, 3.40114504e-01, 1.81399792e-01, 1.08211569e-01,
          1.16309956e-01, 1.54503599e-01, -6.14291877e-02,
          -1.84925983e-03, 3.54817398e-02, 1.12273596e-01,
          1.67953789e-01, 1.73418507e-01, 1.98839590e-01, 2.31570587e-01,
          2.36461043e-01, 1.83681205e-01, 6.84279064e-03, 1.38648385e-02,
          3.91696393e-03, -6.66283909e-03, -8.75770859e-03,
          -8.98414105e-03, -9.27490182e-03, -6.74741482e-03,
          -6.70861034e-03, -5.31702256e-03, -4.19875048e-03,
          -8.23444279e-04, -1.89126434e-03, 1.23278017e-03,
          2.47804145e-03, 5.00324357e-04, 6.35020668e-04, 2.49571440e-05,
          6.76845666e-04, -2.64737313e-03, -5.66050597e-03,
          -7.35980439e-06, 8.54866346e-04, -2.85782339e-03,
          -2.54312553e-03, -4.24220413e-03, -2.43179733e-03,
          -3.50248744e-03, -2.54010595e-02, 2.12640371e-02,
          5.70742972e-02, 5.11558279e-02, 5.26058003e-02, 1.55527396e-02,
          -7.38615822e-03, -1.18463417e-03, 2.02093035e-01,
          2.02093035e-01, 2.02093035e-01, 2.02093035e-01, 2.02093035e-01,
          2.02093035e-01, 2.02093035e-01, 2.02093035e-01, 2.02093035e-01,
          2.02093035e-01, 2.02093035e-01, 2.02093035e-01, 2.02093035e-01,
          2.02093035e-01, 2.02093035e-01 ]
      - [ 1.11214397e-02, 2.46768929e-02, 3.83398384e-02, 5.98217957e-02,
          4.09850962e-02, 4.97131199e-02, 2.47211922e-02, 2.98783388e-02,
          1.28825055e-02, 6.91740168e-03, -1.25711495e-02,
          3.67883630e-02, 3.86648439e-02, 8.66387598e-03, 5.10597674e-05,
          6.88030571e-02, 3.85392047e-02, -1.92739498e-02,
          -7.02581629e-02, -6.17802665e-02, -7.87954554e-02,
          -7.57481158e-02, -6.54903278e-02, -9.23509300e-02,
          -7.31986463e-02, 1.04737598e-02, 1.70042757e-02,
          -4.21629520e-03, -6.41821558e-03, -4.54604207e-03,
          -1.03516178e-03, -7.48218445e-04, -3.38969636e-04,
          -1.71381020e-04, -2.32558363e-04, 3.43386717e-02,
          -7.71914423e-03, -2.05332879e-02, -4.90738638e-02,
          -1.43868655e-01, -1.23663850e-01, -1.39672041e-01,
          -7.36622587e-02, -2.44405016e-01, -1.04431503e-01,
          -5.94548620e-02, 1.30989373e-01, 1.25045376e-02,
          -2.79759690e-02, -8.81290957e-02, 8.70270748e-03,
          2.72202920e-02, 2.85731852e-02, 1.07342619e-02, 1.49635915e-02,
          5.69282509e-02, -1.90578327e-02, -3.50130387e-02,
          -3.97402048e-02, -1.37914494e-01, -1.36212602e-01,
          -4.04592119e-02, 9.13119838e-02, 1.64261460e-01,
          8.13338533e-02, 4.22723405e-02, 4.76686172e-02,
          -4.91974801e-02, -9.22949910e-02, -1.57192230e-01,
          4.97542500e-01, -5.28119385e-01, -5.28119385e-01,
          -5.28119385e-01, -5.28119385e-01, -5.28119385e-01,
          -5.28119385e-01, -5.28119385e-01, -5.28119385e-01,
          -5.28119385e-01, -5.28119385e-01, -5.28119385e-01,
          -5.28119385e-01, -5.28119385e-01, -5.28119385e-01,
          -5.28119385e-01 ]
      - [ 1.65576825e-03, 3.62964510e-03, 2.50729523e-03,
          -1.81717034e-02, -7.48734623e-02, 1.81898917e-03,
          3.78815690e-03, 2.09183227e-02, 5.05617587e-03,
          -5.15579060e-03, -3.84379271e-03, 2.36060247e-02,
          2.84839533e-02, 3.61464289e-03, -1.12862478e-03,
          -1.50619730e-01, -1.49546802e-01, -1.67888209e-01,
          -1.09865353e-01, -5.14887087e-02, -1.67529173e-02,
          -4.57209506e-04, 4.22621798e-03, 6.51740376e-03,
          1.07730012e-02, -9.86732170e-02, -7.35701844e-02,
          -9.90431979e-02, -1.08862199e-01, -8.04125071e-02,
          -4.33613770e-02, -2.51748953e-02, -1.34941665e-02,
          -7.23285275e-03, -1.86116074e-03, 7.99161047e-02,
          4.84734625e-02, 4.23915349e-02, 7.10816979e-02, 8.54418948e-02,
          7.23424256e-02, 6.76340908e-02, 6.75857514e-02, 6.85496330e-02,
          4.29124609e-02, 3.16299982e-02, 2.57524122e-02, 1.61214266e-02,
          7.11575616e-03, 7.95215927e-03, 7.85688218e-03, 8.09285976e-03,
          1.04780924e-02, 6.20455667e-03, 7.51005951e-03, 1.10833915e-02,
          2.04709042e-02, 2.46944893e-02, 2.99597215e-02, 1.88031476e-02,
          1.48280095e-02, 1.15553699e-02, 1.03021748e-02,
          -3.99862938e-02, -5.28554525e-03, 6.44417619e-03,
          -4.45950683e-03, -6.78142486e-03, 1.13494573e-02,
          1.36596086e-02, 7.36289546e-02, -2.52644151e-01,
          -2.52644151e-01, -2.52644151e-01, -2.52644151e-01,
          -2.52644151e-01, -2.52644151e-01, -2.52644151e-01,
          -2.52644151e-01, -2.52644151e-01, -2.52644151e-01,
          -2.52644151e-01, -2.52644151e-01, -2.52644151e-01,
          -2.52644151e-01, -2.52644151e-01 ]
      - [ -1.59546867e-01, -2.51605093e-01, -2.76413321e-01,
          -4.99083906e-01, -5.55453658e-01, -4.94328380e-01,
          -1.53833970e-01, -2.41210654e-01, -2.06347972e-01,
          -5.41298687e-01, 4.50833235e-03, -9.98968855e-02,
          -9.70116183e-02, -5.27936183e-02, -8.20077807e-02,
          2.86505163e-01, 2.53996938e-01, 1.89011604e-01, 1.57830372e-01,
          1.22879706e-01, 1.09843105e-01, 7.00828210e-02, 4.18425053e-02,
          6.35670349e-02, 8.90739933e-02, -7.70695880e-02,
          -2.50818878e-02, -2.83201057e-02, -1.68275367e-02,
          -2.45273579e-03, 2.40507041e-04, -5.84925932e-04,
          -4.02627047e-04, -1.10071467e-03, -4.02532809e-04,
          2.82556325e-01, 1.94942594e-01, 1.62628099e-01, 2.83286929e-01,
          3.02751094e-01, 1.96671307e-01, 1.71305120e-01, 1.87081158e-01,
          2.72778004e-01, 2.29676709e-01, 1.83297336e-01, 1.10140108e-01,
          4.67747338e-02, 2.10610479e-02, 5.07196002e-02, 3.52103002e-02,
          3.12848501e-02, 5.44514991e-02, 5.18108793e-02, 4.23433520e-02,
          2.74409745e-02, 8.45525786e-02, 1.05718382e-01, 9.89142135e-02,
          8.09272677e-02, 5.45827560e-02, 6.03301115e-02, 7.71151781e-02,
          -4.15412784e-02, 1.83502942e-01, 2.82004744e-01,
          2.71594316e-01, 3.29645663e-01, 3.23824674e-01, 3.45340550e-01,
          2.02441350e-01, 2.99061269e-01, 2.99061269e-01, 2.99061269e-01,
          2.99061269e-01, 2.99061269e-01, 2.99061269e-01, 2.99061269e-01,
          2.99061269e-01, 2.99061269e-01, 2.99061269e-01, 2.99061269e-01,
          2.99061269e-01, 2.99061269e-01, 2.99061269e-01, 2.99061269e-01 ]
      - [ -6.08332874e-03, -9.86266136e-03, -2.68020183e-02,
          -8.80668834e-02, -2.49246180e-01, 1.76650807e-02,
          -5.37553243e-03, -2.10136850e-03, -7.28267990e-03,
          -1.85178947e-02, 7.61369839e-02, 3.15100998e-02,
          2.19510421e-02, 3.25704063e-03, 3.86772724e-03,
          -7.14985549e-01, -7.09274888e-01, -6.98881090e-01,
          -4.33612168e-01, -2.34534368e-01, -9.09907445e-02,
          4.28948924e-03, -1.47425639e-03, 3.22625041e-02,
          6.03469200e-02, -2.49990210e-01, -2.30766565e-01,
          -2.44092435e-01, -2.99742997e-01, -2.72076190e-01,
          -1.84890255e-01, -1.18663102e-01, -6.92576021e-02,
          -3.94232869e-02, -1.41692078e-02, 1.62675783e-01,
          1.45802915e-01, 1.63069621e-01, 2.55761176e-01, 2.60128409e-01,
          1.80117980e-01, 2.11996868e-01, 1.99495509e-01, 2.01003060e-01,
          1.71618178e-01, 9.25284326e-02, 5.32144159e-02, 4.12536822e-02,
          9.05732065e-03, 1.87021017e-01, 7.78382197e-02, 8.13245848e-02,
          6.46451116e-02, 2.86259484e-02, 3.70801762e-02, 1.92553792e-02,
          9.49994251e-02, 9.85095873e-02, 6.10613823e-02, 5.21086268e-02,
          3.08541954e-02, 1.62242986e-02, 5.79181220e-03,
          -8.37476775e-02, -1.16455615e-01, -7.71355778e-02,
          -1.21106505e-01, -9.69437808e-02, -1.24518700e-01,
          -1.10142283e-01, -4.04921889e-01, -8.79070759e-02,
          -8.79070759e-02, -8.79070759e-02, -8.79070759e-02,
          -8.79070759e-02, -8.79070759e-02, -8.79070759e-02,
          -8.79070759e-02, -8.79070759e-02, -8.79070759e-02,
          -8.79070759e-02, -8.79070759e-02, -8.79070759e-02,
          -8.79070759e-02, -8.79070759e-02 ]
      - [ -8.10301378e-02, -6.60096407e-02, -5.47001325e-02,
          -1.24331184e-01, -1.65010303e-01, -1.60372660e-01,
          -4.29306515e-02, -4.91751246e-02, -5.72196171e-02,
          -1.59646258e-01, -4.68762033e-03, -2.68223640e-02,
          -2.39506159e-02, -1.69629082e-02, -2.24082507e-02,
          -1.02981841e-02, 7.55391363e-03, 3.45497392e-02,
          4.98917960e-02, 3.23770903e-02, 3.34045142e-02, 3.24362069e-02,
          2.86860634e-02, 4.16595489e-02, 3.16689312e-02,
          -3.20993215e-02, -1.50657194e-02, -8.16940051e-03,
          -5.02275070e-03, -4.59586663e-05, -5.37972548e-04,
          -2.88175564e-04, -2.22402727e-04, -3.35562450e-04,
          -9.35378121e-05, 9.74245295e-02, 9.37637910e-02,
          1.01257175e-01, 1.57127336e-01, 1.95581347e-01, 1.39517784e-01,
          9.50482339e-02, 7.40154684e-02, 1.16235279e-01, 1.21977605e-01,
          1.51234806e-01, 1.46180987e-01, 9.36793610e-02, 6.29435331e-02,
          2.37527606e-03, 5.41586196e-03, 8.34129937e-03, 1.72654614e-02,
          4.20388058e-02, 4.00062278e-02, 4.13090959e-02, 1.90523304e-02,
          3.11353318e-02, 2.85931788e-02, 4.56032380e-02, 3.16869542e-02,
          2.95388084e-02, 2.41249483e-02, -7.20273852e-02,
          -1.71601418e-02, 2.08634082e-02, 5.14267236e-02,
          1.26957834e-01, 1.51095212e-01, 2.10729539e-01,
          -1.00437105e-01, 2.05087379e-01, 2.05087379e-01,
          2.05087379e-01, 2.05087379e-01, 2.05087379e-01, 2.05087379e-01,
          2.05087379e-01, 2.05087379e-01, 2.05087379e-01, 2.05087379e-01,
          2.05087379e-01, 2.05087379e-01, 2.05087379e-01, 2.05087379e-01,
          2.05087379e-01 ]
      - [ -4.64712940e-02, -3.84518392e-02, -2.73214635e-02,
          -5.12771197e-02, -4.24982272e-02, -8.34806561e-02,
          -2.08694767e-02, -2.41790097e-02, -2.57462785e-02,
          -6.92022368e-02, -5.74383000e-03, -1.30029339e-02,
          -8.09548143e-03, -5.66400075e-03, -9.04291589e-03,
          1.65937826e-01, 1.58223629e-01, 1.37535140e-01, 7.84248710e-02,
          3.22780460e-02, 1.38779944e-02, 4.03939281e-03, 7.54624314e-04,
          -2.31047306e-04, -9.82865924e-04, 7.56907091e-02,
          6.37608171e-02, 6.51948079e-02, 7.23840222e-02, 5.62278554e-02,
          3.09155453e-02, 1.84957962e-02, 1.02386279e-02, 5.37085347e-03,
          1.34594971e-03, 3.32938205e-03, 2.64878897e-03, 6.86454936e-04,
          -2.49314657e-03, -4.07808786e-03, -3.76371737e-03,
          -3.66567750e-03, -3.11312126e-03, -2.88915378e-03,
          -2.24487367e-03, -1.97352772e-03, -1.32648321e-03,
          -1.29459100e-03, -4.55155445e-04, 1.33216591e-03,
          1.85178636e-04, 2.06479279e-04, -8.49758580e-05,
          1.43434023e-04, -5.41104120e-04, -1.84526888e-03,
          1.28314976e-04, -9.00357554e-06, -7.54476292e-04,
          -8.33743310e-04, -1.20540382e-03, -8.73031968e-04,
          -1.15641218e-03, -1.49677200e-02, 7.37980288e-03,
          1.59814861e-02, 1.74377207e-02, 1.37768267e-02,
          -6.50591496e-03, -1.28908800e-02, 5.60609996e-03,
          1.77416578e-01, 1.77416578e-01, 1.77416578e-01, 1.77416578e-01,
          1.77416578e-01, 1.77416578e-01, 1.77416578e-01, 1.77416578e-01,
          1.77416578e-01, 1.77416578e-01, 1.77416578e-01, 1.77416578e-01,
          1.77416578e-01, 1.77416578e-01, 1.77416578e-01 ]
   uncompressed_sv_total: 44
   uncompressed_support_vectors:
      - [ 8.45758303e-04, 4.85406345e-04, 2.33069365e-03, 3.34589090e-03,
          7.32278312e-03, 1.14951553e-02, 3.95585317e-03, 4.38373629e-03,
          3.77289345e-03, 5.83953736e-03, 4.43738885e-02, 2.13375334e-02,
          1.72670595e-02, 1.01072956e-02, 1.91637743e-02, 3.90039921e-01,
          4.86031234e-01, 7.20444739e-01, 9.91169870e-01, 7.97364593e-01,
          3.01390946e-01, 6.76345751e-02, 2.46934853e-02, 1.89364776e-02,
          1.88675374e-02, 2.81463057e-01, 3.20578933e-01, 4.74831134e-01,
          9.00877297e-01, 9.28386688e-01, 4.35584486e-01, 1.43146724e-01,
          3.06852087e-02, 9.22918133e-03, 3.20288981e-03, 4.41290485e-03,
          1.03671290e-03, 5.95694408e-04, 5.99031977e-04, 1.07062666e-03,
          2.32180828e-04, 1.60125375e-04, 1.68640065e-04, 4.52873035e-04,
          5.24604344e-04, 3.74583877e-04, 1.22819550e-03, 4.25529695e-04,
          5.33536891e-04, 0., 0., 0., 0., 7.41439464e-04, 1.22514658e-03,
          0., 2.02644776e-04, 0., 0., 2.96635320e-04, 1.67241305e-04,
          2.09292833e-04, 3.72935319e-04, 2.71542240e-02, 1.51182571e-02,
          8.52163602e-03, 6.62646024e-03, 7.95470458e-03, 1.10672209e-02,
          1.03505515e-02, 6.55573547e-01, 2.79048294e-01, 2.79048294e-01,
          2.79048294e-01, 2.79048294e-01, 2.79048294e-01, 2.79048294e-01,
          2.79048294e-01, 2.79048294e-01, 2.79048294e-01, 2.79048294e-01,
          2.79048294e-01, 2.79048294e-01, 2.79048294e-01, 2.79048294e-01,
          2.79048294e-01 ]
      - [ 4.58269520e-03, 5.59768174e-03, 5.73371723e-03, 1.61051210e-02,
          7.56698549e-02, 2.92200297e-02, 6.93263160e-03, 6.69895578e-03,
          5.38951252e-03, 1.13423821e-02, 4.25816188e-03, 1.29914833e-02,
          1.28063643e-02, 4.84953029e-03, 8.04821774e-03, 5.16204536e-01,
          6.90884173e-01, 9.26376939e-01, 9.03687179e-01, 6.81614280e-01,
          3.57511193e-01, 8.21456313e-02, 1.52608920e-02, 1.05237439e-02,
          1.29434885e-02, 8.49601775e-02, 8.60242397e-02, 1.34046987e-01,
          2.31829047e-01, 2.94824481e-01, 1.39176473e-01, 4.51059490e-02,
          1.45011134e-02, 2.49425508e-03, 1.08970411e-03, 4.86381724e-02,
          3.17552872e-02, 1.55027201e-02, 2.29934771e-02, 1.56749431e-02,
          4.67886310e-03, 4.51754173e-03, 1.35936076e-03, 1.46019354e-03,
          2.11434509e-03, 1.58159924e-03, 2.67146714e-03, 1.79670681e-03,
          1.02397439e-03, 5.69245638e-03, 3.81843001e-03, 9.68221633e-04,
          2.79406272e-03, 2.56137317e-03, 4.23238566e-03, 1.09063033e-02,
          4.20033373e-03, 2.88232416e-03, 1.42487406e-03, 6.83169928e-04,
          0., 1.44604407e-03, 4.29446867e-04, 3.25918674e-01,
          2.37071693e-01, 2.12961555e-01, 1.58906817e-01, 2.12285221e-01,
          1.87151760e-01, 1.09883286e-01, 7.05725491e-01, 2.30100840e-01,
          2.30100840e-01, 2.30100840e-01, 2.30100840e-01, 2.30100840e-01,
          2.30100840e-01, 2.30100840e-01, 2.30100840e-01, 2.30100840e-01,
          2.30100840e-01, 2.30100840e-01, 2.30100840e-01, 2.30100840e-01,
          2.30100840e-01, 2.30100840e-01 ]
      - [ 7.22049410e-03, 1.60350241e-02, 3.21296342e-02, 6.50762022e-02,
          8.43784735e-02, 3.97700034e-02, 2.82528587e-02, 4.62457426e-02,
          4.43111919e-02, 5.55036813e-02, 4.95375320e-02, 2.43376885e-02,
          3.04936897e-02, 2.24624202e-02, 7.83041026e-03, 2.65664786e-01,
          2.56399125e-01, 1.38248578e-01, 6.91997185e-02, 2.83642914e-02,
          1.39050623e-02, 4.79992991e-03, 1.41270366e-03, 6.12755131e-04,
          9.95890819e-04, 8.56249705e-02, 5.38301468e-02, 2.52623241e-02,
          1.42414216e-02, 5.51960384e-03, 3.08685331e-03, 1.33420352e-03,
          5.93176519e-04, 3.50447284e-04, 2.70878751e-04, 2.33027473e-01,
          1.55085132e-01, 1.28125921e-01, 2.04584718e-01, 2.59721458e-01,
          1.88063234e-01, 1.78659320e-01, 2.04266608e-01, 3.38059396e-01,
          2.64952779e-01, 1.61074027e-01, 7.58345947e-02, 3.62443402e-02,
          2.25013047e-02, 2.65711434e-02, 2.67353971e-02, 2.13804618e-02,
          4.36407924e-02, 4.87434156e-02, 3.95117030e-02, 3.13281491e-02,
          4.19774689e-02, 6.62353709e-02, 9.05559361e-02, 7.61653706e-02,
          7.15693459e-02, 8.93052816e-02, 1.19348668e-01, 1.03961714e-01,
          7.74931833e-02, 8.32130089e-02, 6.45231605e-02, 9.07770917e-02,
          8.99937674e-02, 1.08690970e-01, 6.25663757e-01, 2.06956506e-01,
          2.06956506e-01, 2.06956506e-01, 2.06956506e-01, 2.06956506e-01,
          2.06956506e-01, 2.06956506e-01, 2.06956506e-01, 2.06956506e-01,
          2.06956506e-01, 2.06956506e-01, 2.06956506e-01, 2.06956506e-01,
          2.06956506e-01, 2.06956506e-01 ]
      - [ 8.51828512e-03, 2.32471023e-02, 4.05177884e-02, 5.12603074e-02,
          3.30752358e-02, 5.67929037e-02, 3.99642177e-02, 9.30934101e-02,
          3.85867804e-02, 1.49101336e-02, 1.30609926e-02, 1.08013444e-01,
          1.41165227e-01, 3.11442949e-02, 1.04518076e-02, 2.63706833e-01,
          2.38081411e-01, 1.55917689e-01, 7.67651424e-02, 2.65544746e-02,
          4.36014589e-03, 3.71409202e-04, 1.71421489e-04, 3.63505795e-04,
          5.90794021e-04, 1.60415292e-01, 1.26704872e-01, 4.26770411e-02,
          1.78301875e-02, 5.86996786e-03, 1.46497530e-03, 9.89364780e-05,
          0., 0., 0., 2.48065293e-01, 1.65236384e-01, 1.43469065e-01,
          2.27010503e-01, 2.51201928e-01, 2.09504858e-01, 2.09439442e-01,
          2.15085283e-01, 2.13144258e-01, 1.25845641e-01, 7.13900253e-02,
          3.46443802e-02, 9.70689300e-03, 7.85205164e-04, 3.59211005e-02,
          2.83655096e-02, 2.69139111e-02, 3.07991002e-02, 1.88227687e-02,
          2.02842653e-02, 2.09079571e-02, 6.64311573e-02, 7.84630552e-02,
          1.01067670e-01, 6.25368729e-02, 4.59645353e-02, 2.93385107e-02,
          2.42865328e-02, 8.61698240e-02, 7.48466924e-02, 9.70614552e-02,
          1.05688915e-01, 1.69896722e-01, 2.37527609e-01, 2.34596893e-01,
          9.09327567e-01, 2.44077206e-01, 2.44077206e-01, 2.44077206e-01,
          2.44077206e-01, 2.44077206e-01, 2.44077206e-01, 2.44077206e-01,
          2.44077206e-01, 2.44077206e-01, 2.44077206e-01, 2.44077206e-01,
          2.44077206e-01, 2.44077206e-01, 2.44077206e-01, 2.44077206e-01 ]
      - [ 2.66384054e-02, 3.89422625e-02, 3.33608985e-02, 4.23370972e-02,
          3.22076641e-02, 3.05463858e-02, 1.97013710e-02, 1.53858755e-02,
          7.39966286e-03, 2.42243591e-03, 6.36602286e-03, 7.38898851e-03,
          3.77876218e-03, 1.20835472e-03, 6.46893575e-04, 4.69525578e-03,
          6.04197243e-03, 3.77282198e-03, 6.65171351e-03, 5.80932945e-03,
          2.60380795e-03, 8.44795257e-04, 4.45611076e-04, 1.41740299e-03,
          3.07154469e-03, 1.27783581e-03, 1.27804326e-03, 8.89886636e-04,
          1.72374805e-03, 1.24563382e-03, 0., 0., 0., 0., 0.,
          3.44581693e-01, 1.74311817e-01, 1.48359030e-01, 2.15707093e-01,
          2.56724089e-01, 1.95526302e-01, 1.78608149e-01, 2.01896042e-01,
          2.57803530e-01, 2.47233868e-01, 2.88041174e-01, 1.50553912e-01,
          7.93622434e-02, 2.16871649e-02, 1.13470897e-01, 1.05847262e-01,
          1.36306942e-01, 1.93194136e-01, 1.82955235e-01, 3.00555646e-01,
          3.26102108e-01, 1.52046978e-01, 1.85771063e-01, 1.77221671e-01,
          1.46180794e-01, 1.50675938e-01, 1.38118848e-01, 1.76023290e-01,
          1.41965866e-01, 1.22160919e-01, 1.27976701e-01, 9.31640565e-02,
          1.24676965e-01, 1.19374506e-01, 1.05368577e-01, 1.,
          1.66358680e-01, 1.66358680e-01, 1.66358680e-01, 1.66358680e-01,
          1.66358680e-01, 1.66358680e-01, 1.66358680e-01, 1.66358680e-01,
          1.66358680e-01, 1.66358680e-01, 1.66358680e-01, 1.66358680e-01,
          1.66358680e-01, 1.66358680e-01, 1.66358680e-01 ]
      - [ 5.79915103e-03, 7.85280019e-03, 1.27808377e-02, 3.35839614e-02,
          8.11694413e-02, 1.14478804e-02, 5.62429707e-03, 5.86849544e-03,
          4.28005727e-03, 1.24164969e-02, 8.15746095e-03, 6.42491458e-03,
          6.85968297e-03, 3.48388474e-03, 4.04105010e-03, 1.61650002e-01,
          1.26020327e-01, 1.20517604e-01, 1.31771281e-01, 1.16259485e-01,
          1.08633667e-01, 7.37664029e-02, 4.43245545e-02, 6.62938058e-02,
          8.98491219e-02, 4.29824507e-03, 4.21120878e-03, 9.97767900e-04,
          3.12916352e-03, 8.97841470e-04, 1.94432144e-03, 4.94339387e-04,
          1.09889734e-04, 0., 0., 1.19948372e-01, 7.60429353e-02,
          6.29130974e-02, 1.18106768e-01, 9.93229747e-02, 4.88185585e-02,
          4.31614183e-02, 6.48714676e-02, 8.84155184e-02, 7.55852237e-02,
          5.90487495e-02, 4.49688360e-02, 2.73794942e-02, 1.15247052e-02,
          9.08764359e-03, 4.57190955e-03, 2.89819529e-03, 8.36351886e-03,
          1.12449406e-02, 8.44591763e-03, 4.35280427e-03, 2.20724866e-02,
          2.46177409e-02, 1.73447449e-02, 1.59505699e-02, 7.60932732e-03,
          1.15425866e-02, 1.85107831e-02, 3.33712548e-01, 3.34124297e-01,
          3.22480589e-01, 2.69292444e-01, 3.27932179e-01, 3.19874793e-01,
          2.73493558e-01, 8.10023725e-01, 1.76865458e-01, 1.76865458e-01,
          1.76865458e-01, 1.76865458e-01, 1.76865458e-01, 1.76865458e-01,
          1.76865458e-01, 1.76865458e-01, 1.76865458e-01, 1.76865458e-01,
          1.76865458e-01, 1.76865458e-01, 1.76865458e-01, 1.76865458e-01,
          1.76865458e-01 ]
      - [ 4.33488190e-03, 6.04430353e-03, 7.42320251e-03, 1.81847606e-02,
          2.58312970e-02, 1.45926392e-02, 5.86618390e-03, 6.61515165e-03,
          4.19025961e-03, 4.97266604e-03, 1.26172658e-02, 2.39098002e-03,
          4.99292836e-03, 6.84263592e-04, 2.74740742e-04, 2.63809264e-01,
          3.12228650e-01, 2.97883928e-01, 2.31106088e-01, 1.26556322e-01,
          5.89357018e-02, 1.85546279e-02, 9.14730132e-03, 8.32741894e-03,
          9.62075405e-03, 8.21296424e-02, 8.94836262e-02, 5.75731359e-02,
          4.81552035e-02, 2.40708832e-02, 1.06140375e-02, 3.60455271e-03,
          8.74121557e-04, 6.88571890e-04, 2.66116345e-04, 1.43273637e-01,
          9.19709876e-02, 8.65288153e-02, 1.23853281e-01, 1.55814275e-01,
          1.21096365e-01, 1.08979374e-01, 1.17343172e-01, 1.28585905e-01,
          1.13898836e-01, 1.73305556e-01, 2.19512835e-01, 1.99641839e-01,
          1.05327167e-01, 1.25499945e-02, 1.44796176e-02, 1.84430312e-02,
          3.25247459e-02, 1.98773909e-02, 4.03099991e-02, 6.15547188e-02,
          4.84007895e-02, 5.18533438e-02, 3.64399925e-02, 2.85568889e-02,
          2.38446184e-02, 3.97868864e-02, 6.13519326e-02, 1.14542723e-01,
          8.88643637e-02, 1.08484462e-01, 1.07801259e-01, 1.65760532e-01,
          1.81568384e-01, 1.37362674e-01, 7.96678185e-01, 2.12323040e-01,
          2.12323040e-01, 2.12323040e-01, 2.12323040e-01, 2.12323040e-01,
          2.12323040e-01, 2.12323040e-01, 2.12323040e-01, 2.12323040e-01,
          2.12323040e-01, 2.12323040e-01, 2.12323040e-01, 2.12323040e-01,
          2.12323040e-01, 2.12323040e-01 ]
      - [ 1.52895122e-03, 8.95433885e-04, 1.51824497e-03, 2.21308973e-03,
          2.26598629e-03, 3.85794938e-02, 8.34940933e-03, 5.27847139e-03,
          2.91320006e-03, 2.94726994e-03, 2.28281263e-02, 2.21704654e-02,
          1.74219217e-02, 8.66615586e-03, 1.04387235e-02, 5.44722239e-03,
          7.44510908e-03, 1.72104668e-02, 3.23164165e-02, 3.93004455e-02,
          6.10440932e-02, 6.68317899e-02, 7.22112656e-02, 1.56353861e-01,
          4.66733068e-01, 7.74615491e-03, 1.04753748e-02, 1.87665485e-02,
          5.24915121e-02, 9.10899639e-02, 1.19672790e-01, 2.06123158e-01,
          3.75466436e-01, 6.43741429e-01, 9.37491477e-01, 1.38992863e-03,
          1.06667296e-03, 7.00467965e-04, 1.02723902e-03, 1.23645249e-03,
          5.11908554e-04, 4.70722414e-04, 2.47876567e-04, 7.32223853e-04,
          6.42577244e-04, 1.65175274e-03, 1.10322062e-03, 1.35517912e-03,
          1.56844454e-03, 6.05504378e-04, 8.12329818e-04, 3.08968069e-04,
          4.45805053e-04, 0., 3.60157760e-03, 0., 4.46787919e-04,
          3.67910048e-04, 6.06253161e-04, 1.09002780e-04, 2.45820615e-04,
          4.61445452e-04, 8.22241767e-04, 9.59442114e-04, 8.16972693e-04,
          1.59900973e-03, 2.80023320e-03, 5.11536747e-03, 4.36804956e-03,
          5.73123293e-03, 6.89933598e-01, 4.13207769e-01, 4.13207769e-01,
          4.13207769e-01, 4.13207769e-01, 4.13207769e-01, 4.13207769e-01,
          4.13207769e-01, 4.13207769e-01, 4.13207769e-01, 4.13207769e-01,
          4.13207769e-01, 4.13207769e-01, 4.13207769e-01, 4.13207769e-01,
          4.13207769e-01 ]
      - [ 1.36656724e-02, 2.63366923e-02, 4.84690331e-02, 1.49216026e-01,
          1.17191151e-01, 2.06793949e-01, 8.20894763e-02, 1.46395981e-01,
          1.74395755e-01, 5.95043540e-01, 2.29043216e-02, 8.42428952e-02,
          1.03821039e-01, 6.83749616e-02, 9.39447060e-02, 8.07615072e-02,
          6.60164282e-02, 6.73423335e-02, 6.44274652e-02, 4.69443053e-02,
          3.42667289e-02, 2.06053704e-02, 1.16601065e-02, 1.25173852e-02,
          1.61999278e-02, 1.82647198e-01, 8.95767510e-02, 5.96684963e-02,
          3.94664742e-02, 1.13060232e-02, 4.67098923e-03, 2.52362597e-03,
          1.34638138e-03, 1.59087789e-03, 6.14835706e-04, 3.99353504e-02,
          1.34265628e-02, 1.07337628e-02, 2.30494775e-02, 2.32531764e-02,
          1.79765988e-02, 1.62297245e-02, 1.11577623e-02, 1.24954246e-02,
          1.13236634e-02, 1.26554864e-02, 6.53164228e-03, 8.38641636e-03,
          2.50358135e-03, 2.31964234e-03, 2.33398145e-03, 1.18363381e-03,
          3.41569213e-03, 2.08748900e-03, 6.89868862e-03, 1.77770164e-02,
          4.56429692e-03, 1.87924807e-03, 6.96753291e-03, 6.68130536e-03,
          8.47548526e-03, 5.30329021e-03, 6.29989430e-03, 3.74906287e-02,
          2.81678569e-02, 3.11389100e-02, 1.91229098e-02, 4.98313420e-02,
          6.69346973e-02, 6.58677891e-02, 7.20039368e-01, 3.91986780e-02,
          3.91986780e-02, 3.91986780e-02, 3.91986780e-02, 3.91986780e-02,
          3.91986780e-02, 3.91986780e-02, 3.91986780e-02, 3.91986780e-02,
          3.91986780e-02, 3.91986780e-02, 3.91986780e-02, 3.91986780e-02,
          3.91986780e-02, 3.91986780e-02 ]
      - [ 4.95110964e-03, 3.59550351e-03, 2.59674969e-03, 2.63363682e-03,
          3.65901785e-03, 1.34477522e-02, 2.92968354e-04, 2.70744873e-04,
          1.64875717e-04, 7.28669926e-04, 1.12340981e-02, 8.46709067e-04,
          0., 0., 1.55668735e-04, 3.04399785e-02, 3.00219525e-02,
          2.29999665e-02, 1.07399868e-02, 5.42737171e-03, 8.10870028e-04,
          1.74250177e-04, 0., 0., 0., 3.07498936e-04, 8.78710998e-05,
          1.42761797e-04, 0., 0., 0., 0., 0., 0., 0., 1.62358329e-01,
          1.07944146e-01, 8.71141627e-02, 1.45314381e-01, 1.98007002e-01,
          1.87484711e-01, 3.04483205e-01, 3.99911165e-01, 5.33138573e-01,
          4.97145474e-01, 6.23915315e-01, 4.93077308e-01, 2.60121316e-01,
          1.04621761e-01, 2.70496935e-01, 1.11042671e-01, 1.15238771e-01,
          1.52454719e-01, 5.06815799e-02, 3.38366465e-03, 0.,
          4.79919910e-02, 6.08343408e-02, 9.56880823e-02, 1.01383507e-01,
          1.74711615e-01, 1.63872719e-01, 2.81187117e-01, 8.16660449e-02,
          1.34166315e-01, 2.65775144e-01, 3.38230044e-01, 5.10931909e-01,
          4.41225082e-01, 3.01921666e-01, 4.77591693e-01, 4.45802957e-01,
          4.45802957e-01, 4.45802957e-01, 4.45802957e-01, 4.45802957e-01,
          4.45802957e-01, 4.45802957e-01, 4.45802957e-01, 4.45802957e-01,
          4.45802957e-01, 4.45802957e-01, 4.45802957e-01, 4.45802957e-01,
          4.45802957e-01, 4.45802957e-01 ]
      - [ 3.68150324e-02, 2.10233591e-02, 6.58863084e-03, 5.20825339e-03,
          5.11625223e-03, 3.88495475e-01, 4.01600711e-02, 1.95605922e-02,
          8.23308062e-03, 7.26700155e-03, 4.68017429e-01, 9.45512801e-02,
          3.25704925e-02, 1.38869844e-02, 1.11516109e-02, 1.54038351e-02,
          2.82330122e-02, 6.57673031e-02, 1.16081253e-01, 1.53250098e-01,
          1.90650240e-01, 1.63621604e-01, 1.54162377e-01, 2.51528502e-01,
          5.60738742e-01, 3.04508042e-02, 3.96202393e-02, 7.03106150e-02,
          1.70134038e-01, 2.66914040e-01, 2.88721323e-01, 3.24496984e-01,
          3.22104782e-01, 3.04560155e-01, 2.42505386e-01, 2.29278347e-03,
          1.96064240e-03, 1.55988510e-03, 3.05010355e-03, 2.55878852e-03,
          3.29327141e-03, 3.72714829e-03, 4.78400802e-03, 8.82831495e-03,
          9.98497196e-03, 1.75287779e-02, 2.28307080e-02, 1.54762734e-02,
          1.65584497e-02, 2.99646432e-04, 6.02997432e-04, 1.22319418e-03,
          3.08862259e-03, 2.69657350e-03, 8.91157775e-04, 2.29639676e-03,
          1.47401515e-04, 4.85514465e-04, 4.50025458e-04, 1.07884582e-03,
          8.51546065e-04, 1.82684697e-03, 2.98395823e-03, 3.98831908e-03,
          3.23436735e-03, 3.69274803e-03, 3.13300826e-03, 5.49685396e-03,
          5.21770399e-03, 9.48844384e-03, 9.41375613e-01, 4.18453634e-01,
          4.18453634e-01, 4.18453634e-01, 4.18453634e-01, 4.18453634e-01,
          4.18453634e-01, 4.18453634e-01, 4.18453634e-01, 4.18453634e-01,
          4.18453634e-01, 4.18453634e-01, 4.18453634e-01, 4.18453634e-01,
          4.18453634e-01, 4.18453634e-01 ]
      - [ 2.75774360e-01, 4.46814060e-01, 2.51492590e-01, 2.50741154e-01,
          3.09346318e-01, 4.57040787e-01, 1.17314175e-01, 7.87960142e-02,
          3.23103853e-02, 2.16869786e-02, 5.92126139e-03, 1.96364485e-02,
          1.17158638e-02, 5.05769905e-03, 3.61019024e-03, 4.04610299e-02,
          2.55171582e-02, 2.20580418e-02, 2.15546824e-02, 1.04890708e-02,
          7.69307185e-03, 6.06168248e-03, 2.48687109e-03, 3.29594035e-03,
          2.67839176e-03, 7.72563927e-03, 6.11358602e-03, 3.72471637e-03,
          3.20663699e-03, 2.17238930e-03, 6.64153311e-04, 7.17652903e-04,
          9.57188779e-04, 0., 0., 1.37540624e-01, 7.13830218e-02,
          3.91088799e-02, 5.51551171e-02, 4.65330593e-02, 1.95188243e-02,
          8.65370128e-03, 8.77631269e-03, 7.61436578e-03, 5.95028186e-03,
          5.49830031e-03, 2.73151114e-03, 5.11044916e-03, 4.27171635e-03,
          0., 0., 3.36594367e-03, 0., 0., 0., 0., 1.62245776e-03,
          2.00403319e-03, 4.12788196e-03, 1.78123859e-03, 2.67800596e-03,
          1.67568482e-03, 4.47881129e-03, 7.44204044e-01, 4.86842096e-01,
          2.62749374e-01, 1.58499360e-01, 2.14153081e-01, 1.63269818e-01,
          1.01034246e-01, 7.57110715e-01, 0., 0., 0., 0., 0., 0., 0., 0.,
          0., 0., 0., 0., 0., 0., 0. ]
      - [ 1.03905210e-02, 1.67707689e-02, 2.75550243e-02, 4.37938310e-02,
          1.25865385e-01, 2.43126992e-02, 1.46401944e-02, 7.01369811e-03,
          7.15103094e-03, 1.38948858e-02, 4.58227023e-02, 1.01306699e-02,
          2.64440267e-03, 5.43609378e-04, 1.74613006e-03, 1.43386632e-01,
          5.52442893e-02, 2.06909049e-02, 6.56407140e-03, 4.61201649e-03,
          1.65372679e-03, 1.30303821e-03, 4.67762380e-04, 2.12551706e-04,
          2.59089982e-03, 2.60606501e-02, 9.19936877e-03, 4.40372201e-03,
          2.75723496e-03, 1.26085582e-03, 3.21229047e-04, 0., 0., 0., 0.,
          3.48690867e-01, 2.14915276e-01, 1.58707142e-01, 2.56972790e-01,
          2.76000857e-01, 1.98103011e-01, 1.61633044e-01, 1.04814231e-01,
          1.00780606e-01, 9.89790857e-02, 1.30872101e-01, 7.92685151e-02,
          2.32528150e-02, 7.57565768e-03, 6.43414930e-02, 3.67390662e-02,
          2.93039270e-02, 4.54141796e-02, 2.29694266e-02, 9.48860776e-03,
          4.07515001e-03, 1.09077379e-01, 1.12006240e-01, 1.00092232e-01,
          7.71544799e-02, 3.75626348e-02, 1.89110506e-02, 1.34789096e-02,
          2.78385967e-01, 2.15811163e-01, 1.71550617e-01, 8.57490301e-02,
          1.14745282e-01, 1.89417928e-01, 2.69408762e-01, 8.42165828e-01,
          1.95246682e-01, 1.95246682e-01, 1.95246682e-01, 1.95246682e-01,
          1.95246682e-01, 1.95246682e-01, 1.95246682e-01, 1.95246682e-01,
          1.95246682e-01, 1.95246682e-01, 1.95246682e-01, 1.95246682e-01,
          1.95246682e-01, 1.95246682e-01, 1.95246682e-01 ]
      - [ 7.78480917e-02, 1.76947057e-01, 1.98264018e-01, 4.09857601e-01,
          6.56880140e-01, 2.29548186e-01, 7.62654990e-02, 6.23597689e-02,
          6.05910681e-02, 3.26606147e-02, 3.59498360e-03, 4.29188572e-02,
          1.63600594e-02, 3.07068788e-03, 4.38371953e-03, 6.26996458e-02,
          2.93246489e-02, 1.55226961e-02, 9.81489290e-03, 6.36824453e-03,
          2.07586912e-03, 0., 5.03285788e-04, 0., 0., 2.16483604e-03,
          6.18625025e-04, 2.51265825e-04, 0., 0., 0., 0., 0., 0., 0.,
          2.83458121e-02, 9.07092635e-03, 4.05389257e-03, 1.06768245e-02,
          1.48693062e-02, 1.38255721e-02, 1.36213098e-02, 1.35258753e-02,
          1.03465356e-02, 6.37518149e-03, 3.33819096e-03, 3.64844943e-03,
          2.06847605e-03, 1.29674654e-03, 0., 0., 0., 0., 0., 0., 0.,
          4.92522493e-04, 8.11140868e-04, 0., 7.20963872e-04,
          1.21942605e-03, 1.52604131e-03, 4.53204475e-03, 5.32422841e-01,
          2.89633155e-01, 1.79794312e-01, 8.37482214e-02, 9.23183709e-02,
          1.19549222e-01, 8.47747326e-02, 6.55181110e-01, 6.01255074e-02,
          6.01255074e-02, 6.01255074e-02, 6.01255074e-02, 6.01255074e-02,
          6.01255074e-02, 6.01255074e-02, 6.01255074e-02, 6.01255074e-02,
          6.01255074e-02, 6.01255074e-02, 6.01255074e-02, 6.01255074e-02,
          6.01255074e-02, 6.01255074e-02 ]
      - [ 4.57577268e-03, 1.66201161e-03, 2.23652180e-03, 5.65083185e-03,
          1.97598673e-02, 4.05037170e-03, 2.98279268e-03, 3.88439232e-03,
          3.51438904e-03, 9.08148102e-03, 1.15982424e-02, 8.28429498e-03,
          1.41220866e-02, 4.40299744e-03, 9.24727134e-03, 4.76097642e-03,
          3.15817865e-03, 1.20856171e-03, 1.80427902e-04, 0., 0., 0., 0.,
          0., 0., 1.43266830e-03, 0., 0., 0., 0., 0., 0., 0., 0., 0.,
          1.17116958e-01, 8.90453160e-02, 8.50839838e-02, 1.68134466e-01,
          2.22515315e-01, 2.00545043e-01, 2.23880440e-01, 3.46964478e-01,
          5.77462792e-01, 5.69042385e-01, 6.11843407e-01, 4.84657973e-01,
          2.20905945e-01, 6.13594949e-02, 1.50079742e-01, 1.57341108e-01,
          2.91614592e-01, 4.99796838e-01, 5.25032699e-01, 4.96592224e-01,
          6.24592543e-01, 1.01206474e-01, 1.48963511e-01, 2.15695426e-01,
          2.54964828e-01, 3.73643219e-01, 5.66312551e-01, 8.64238143e-01,
          6.17351755e-02, 6.06141202e-02, 4.61508930e-02, 2.69791316e-02,
          3.09475549e-02, 2.22515296e-02, 1.38547346e-02, 5.92861116e-01,
          2.15423018e-01, 2.15423018e-01, 2.15423018e-01, 2.15423018e-01,
          2.15423018e-01, 2.15423018e-01, 2.15423018e-01, 2.15423018e-01,
          2.15423018e-01, 2.15423018e-01, 2.15423018e-01, 2.15423018e-01,
          2.15423018e-01, 2.15423018e-01, 2.15423018e-01 ]
      - [ 5.97321987e-03, 1.18870856e-02, 3.16005647e-02, 1.13312162e-01,
          2.90046036e-01, 2.93705687e-02, 1.47143221e-02, 1.30086979e-02,
          1.83708239e-02, 3.37775350e-02, 1.62872355e-02, 1.06825177e-02,
          2.32027769e-02, 1.18165193e-02, 1.05923414e-02, 6.95932209e-01,
          6.32642806e-01, 5.05429864e-01, 2.49380171e-01, 7.88610950e-02,
          2.45047770e-02, 5.35198208e-03, 1.90013263e-03, 1.61172147e-03,
          1.11327809e-03, 1.42541304e-01, 7.84758404e-02, 5.13025932e-02,
          3.59345227e-02, 1.68906134e-02, 3.49130225e-03, 1.44760159e-03,
          3.51050432e-04, 4.14799491e-04, 1.06873296e-04, 6.40181676e-02,
          2.82092746e-02, 1.24191474e-02, 8.50171689e-03, 4.64077340e-03,
          1.87486038e-03, 1.17546588e-03, 7.01517158e-04, 4.43266676e-04,
          2.13948500e-04, 2.44425464e-04, 0., 1.38834439e-04,
          1.74073153e-04, 7.86259305e-03, 2.16374593e-03, 1.44020899e-03,
          1.48432457e-03, 1.81428005e-03, 1.79873803e-03, 1.54503749e-03,
          3.47105972e-03, 1.87828764e-03, 6.05562760e-04, 6.53271913e-04,
          3.27387563e-04, 1.02426653e-04, 1.27758610e-03, 3.07438523e-01,
          2.46444792e-01, 2.05504954e-01, 1.43257305e-01, 1.47349477e-01,
          8.20458755e-02, 3.04623786e-02, 7.56418884e-01, 6.67135537e-01,
          6.67135537e-01, 6.67135537e-01, 6.67135537e-01, 6.67135537e-01,
          6.67135537e-01, 6.67135537e-01, 6.67135537e-01, 6.67135537e-01,
          6.67135537e-01, 6.67135537e-01, 6.67135537e-01, 6.67135537e-01,
          6.67135537e-01, 6.67135537e-01 ]
      - [ 2.20355438e-03, 2.16340506e-03, 2.88216351e-03, 3.78384674e-03,
          1.01768570e-02, 8.97024572e-03, 4.26823134e-03, 3.75902443e-03,
          2.44570803e-03, 4.65380214e-03, 4.57635932e-02, 1.17747961e-02,
          1.03037711e-02, 4.49303351e-03, 7.69711519e-03, 4.75484654e-02,
          8.65848139e-02, 1.56718478e-01, 2.42065340e-01, 2.22870126e-01,
          2.05025420e-01, 1.45482793e-01, 1.12725697e-01, 1.48711398e-01,
          2.23279461e-01, 4.89392690e-02, 8.28233063e-02, 1.47796243e-01,
          3.15058768e-01, 4.34332788e-01, 4.88877356e-01, 6.41483426e-01,
          8.67415190e-01, 6.82016432e-01, 2.68242478e-01, 1.58055741e-02,
          8.62718280e-03, 4.06742375e-03, 4.68670204e-03, 3.75304488e-03,
          2.60094739e-03, 2.05001631e-03, 1.43935077e-03, 1.54611690e-03,
          1.39922579e-03, 1.06569694e-03, 1.60152442e-03, 1.36196835e-03,
          1.51792064e-03, 3.51599650e-03, 2.94810918e-04, 1.34556915e-03,
          1.94150012e-03, 1.58205500e-03, 0., 1.01045640e-02,
          8.64791276e-04, 5.34088002e-04, 6.60064630e-04, 4.74711793e-04,
          0., 4.46581020e-04, 7.95755070e-04, 1.44851608e-02,
          1.11482469e-02, 1.77962631e-02, 1.66136622e-02, 2.84305178e-02,
          3.19237262e-02, 2.23881528e-02, 7.86437929e-01, 2.55730450e-01,
          2.55730450e-01, 2.55730450e-01, 2.55730450e-01, 2.55730450e-01,
          2.55730450e-01, 2.55730450e-01, 2.55730450e-01, 2.55730450e-01,
          2.55730450e-01, 2.55730450e-01, 2.55730450e-01, 2.55730450e-01,
          2.55730450e-01, 2.55730450e-01 ]
      - [ 8.74190312e-03, 7.42554385e-03, 8.93017370e-03, 1.59592796e-02,
          3.61855701e-02, 1.16836568e-02, 3.38632986e-03, 6.37359358e-03,
          6.80774171e-03, 1.44648468e-02, 2.02734885e-03, 1.34464377e-03,
          4.81359800e-03, 4.42540040e-03, 6.18036883e-03, 3.73377651e-01,
          3.66940707e-01, 3.60967278e-01, 2.81464726e-01, 1.81360498e-01,
          1.17358878e-01, 5.52294217e-02, 3.33491005e-02, 3.62241901e-02,
          5.24547026e-02, 1.76207051e-01, 1.14428155e-01, 5.75295575e-02,
          3.86095941e-02, 1.75535083e-02, 4.88901185e-03, 2.94856005e-03,
          2.18484481e-03, 9.03560838e-04, 1.99545335e-04, 1.18377544e-01,
          4.26286906e-02, 2.07386035e-02, 3.14737782e-02, 4.88447845e-02,
          4.26435582e-02, 2.12889444e-02, 1.05170608e-02, 1.31593542e-02,
          7.43009849e-03, 5.81874046e-03, 9.35227424e-03, 2.91623222e-03,
          1.46257004e-03, 0., 3.78747616e-04, 5.76223712e-04,
          2.49427161e-03, 2.03248789e-03, 0., 8.65431409e-03,
          2.77752313e-03, 3.65946745e-03, 2.82664690e-03, 1.21973746e-03,
          3.89685947e-03, 4.30296548e-03, 5.11158723e-04, 1.90029413e-01,
          2.80960947e-01, 3.03433120e-01, 2.14346230e-01, 2.71757454e-01,
          2.94955432e-01, 2.53031105e-01, 8.27565968e-01, 1.78464487e-01,
          1.78464487e-01, 1.78464487e-01, 1.78464487e-01, 1.78464487e-01,
          1.78464487e-01, 1.78464487e-01, 1.78464487e-01, 1.78464487e-01,
          1.78464487e-01, 1.78464487e-01, 1.78464487e-01, 1.78464487e-01,
          1.78464487e-01, 1.78464487e-01 ]
      - [ 5.15180500e-03, 4.66076750e-03, 5.50283724e-03, 1.03320004e-02,
          2.07997635e-02, 3.00846454e-02, 1.71259809e-02, 7.32888561e-03,
          2.98137334e-03, 2.48101656e-03, 1.12777855e-02, 4.90876101e-03,
          1.35280648e-02, 1.33123025e-02, 9.77689959e-03, 3.30729187e-01,
          4.27154005e-01, 6.85087144e-01, 6.11955225e-01, 4.05287355e-01,
          1.87378019e-01, 4.00876254e-02, 7.30219390e-03, 3.02106258e-03,
          3.37963365e-03, 2.33450439e-03, 1.51615788e-03, 6.40447775e-04,
          5.72572753e-04, 4.65478661e-04, 1.97650530e-04, 1.70857515e-04,
          7.59619288e-05, 4.48781248e-05, 0., 4.89679277e-02,
          3.44835185e-02, 2.87845284e-02, 2.99734622e-02, 2.76962686e-02,
          1.79241691e-02, 9.42377187e-03, 6.71034493e-03, 6.17220160e-03,
          3.37491836e-03, 3.21306265e-03, 2.08100234e-03, 1.62224879e-03,
          2.28825584e-03, 1.37416297e-03, 1.05345331e-03, 6.01018313e-04,
          2.89066578e-04, 3.53324140e-04, 0., 0., 2.31763092e-03,
          2.06750515e-03, 2.26034503e-03, 4.94753127e-04, 2.39090557e-04,
          0., 0., 1.87008202e-01, 2.05643952e-01, 3.29450011e-01,
          4.31271166e-01, 7.55679965e-01, 1., 1., 7.55440056e-01,
          6.87640011e-01, 6.87640011e-01, 6.87640011e-01, 6.87640011e-01,
          6.87640011e-01, 6.87640011e-01, 6.87640011e-01, 6.87640011e-01,
          6.87640011e-01, 6.87640011e-01, 6.87640011e-01, 6.87640011e-01,
          6.87640011e-01, 6.87640011e-01, 6.87640011e-01 ]
      - [ 1.66756229e-03, 3.24751763e-03, 6.28198171e-03, 2.68944874e-02,
          4.65864129e-02, 5.35194390e-02, 1.38210235e-02, 1.03189182e-02,
          9.63338278e-03, 1.56535599e-02, 8.80830586e-02, 3.45555693e-02,
          4.34592515e-02, 1.67904664e-02, 7.08438409e-03, 1.80797875e-01,
          1.85351148e-01, 2.08873078e-01, 2.04589024e-01, 1.03518702e-01,
          5.68142012e-02, 4.54057232e-02, 1.29872598e-02, 1.90693475e-02,
          1.49877584e-02, 3.97251286e-02, 2.05752812e-02, 1.14221405e-02,
          9.74319316e-03, 6.10563625e-03, 1.93391100e-03, 1.13570294e-03,
          7.27091625e-04, 1.43188008e-04, 3.68924593e-05, 2.27805555e-01,
          1.48273587e-01, 1.19856708e-01, 1.22046225e-01, 9.96073633e-02,
          5.82478456e-02, 5.73351048e-02, 2.62390096e-02, 2.71754321e-02,
          8.72961618e-03, 3.03750765e-03, 1.45242119e-03, 1.36587350e-03,
          0., 1.94583833e-01, 7.60458931e-02, 8.07525665e-02,
          6.42532036e-02, 3.00617293e-02, 3.60134207e-02, 2.08004173e-02,
          9.47949961e-02, 8.53326246e-02, 5.07965088e-02, 4.54774909e-02,
          2.52585337e-02, 1.36833470e-02, 4.53620916e-03, 2.90328026e-01,
          2.05300242e-01, 2.46819451e-01, 1.68590695e-01, 2.84929991e-01,
          2.25607187e-01, 1.78357229e-01, 5.92731893e-01, 6.41011894e-01,
          6.41011894e-01, 6.41011894e-01, 6.41011894e-01, 6.41011894e-01,
          6.41011894e-01, 6.41011894e-01, 6.41011894e-01, 6.41011894e-01,
          6.41011894e-01, 6.41011894e-01, 6.41011894e-01, 6.41011894e-01,
          6.41011894e-01, 6.41011894e-01 ]
      - [ 1., 3.69176894e-01, 2.23799106e-02, 2.52533052e-02,
          2.84566451e-02, 1., 1.22170828e-01, 1.65452566e-02,
          6.56267488e-03, 2.59735575e-03, 2.12355196e-01, 1.76056325e-02,
          1.20048015e-03, 5.75825805e-04, 4.62403113e-04, 1.18453940e-03,
          4.66901140e-04, 2.56841333e-04, 1.22701470e-03, 4.88534220e-04,
          0., 0., 0., 0., 0., 3.04468063e-04, 2.61014968e-04, 0., 0., 0.,
          0., 0., 0., 0., 0., 5.81832044e-02, 2.12626364e-02,
          6.10874733e-03, 2.45718937e-03, 5.33270510e-03, 1.42858550e-03,
          9.85235441e-04, 0., 3.71531030e-04, 3.58648686e-04,
          2.56086350e-04, 2.79887579e-04, 2.90915748e-04, 0.,
          4.22446011e-03, 1.13348628e-03, 0., 1.24411029e-03, 0.,
          2.51273508e-03, 0., 1.66247075e-03, 2.39569927e-03,
          1.69187365e-03, 2.12936220e-03, 2.05803826e-03, 8.58505315e-04,
          7.64877943e-04, 1.20488390e-01, 9.25651416e-02, 2.11962294e-02,
          1.08725205e-02, 5.30232117e-03, 2.52205576e-03, 5.81606524e-04,
          8.41696739e-01, 8.84440467e-02, 8.84440467e-02, 8.84440467e-02,
          8.84440467e-02, 8.84440467e-02, 8.84440467e-02, 8.84440467e-02,
          8.84440467e-02, 8.84440467e-02, 8.84440467e-02, 8.84440467e-02,
          8.84440467e-02, 8.84440467e-02, 8.84440467e-02, 8.84440467e-02 ]
      - [ 1.96789461e-03, 2.04319204e-03, 1.66357926e-03, 2.32283561e-03,
          2.46860529e-03, 1.96443554e-02, 5.25638601e-03, 4.25550016e-03,
          2.13141786e-03, 2.79105874e-03, 3.54512557e-02, 2.16888320e-02,
          1.49963442e-02, 5.91697963e-03, 1.13663059e-02, 9.94436443e-03,
          1.48634892e-02, 2.74270792e-02, 4.19042669e-02, 5.07906191e-02,
          6.67065531e-02, 7.29315728e-02, 8.65540281e-02, 1.49087459e-01,
          3.05786759e-01, 1.92623883e-02, 3.23955156e-02, 4.51132432e-02,
          8.88206288e-02, 1.14724882e-01, 1.63784906e-01, 2.74394155e-01,
          5.85068226e-01, 1., 1., 0., 5.14087616e-04, 2.95394362e-04,
          4.95082291e-04, 3.79217759e-04, 7.67562538e-04, 7.94033462e-04,
          4.87816171e-04, 5.24000730e-04, 8.67140072e-04, 1.03194185e-03,
          1.57899375e-03, 8.20604735e-04, 2.35174666e-03, 0.,
          2.28378412e-04, 3.47453140e-04, 0., 6.12777891e-04,
          1.01254764e-03, 0., 0., 1.37912313e-04, 3.40884057e-04,
          1.22580183e-04, 1.38220028e-04, 1.72974367e-04, 3.08220071e-04,
          4.31580143e-03, 2.93995161e-03, 3.29666771e-03, 3.14903050e-03,
          5.42382197e-03, 5.25090192e-03, 5.15609281e-03, 5.70547879e-01,
          3.57147694e-01, 3.57147694e-01, 3.57147694e-01, 3.57147694e-01,
          3.57147694e-01, 3.57147694e-01, 3.57147694e-01, 3.57147694e-01,
          3.57147694e-01, 3.57147694e-01, 3.57147694e-01, 3.57147694e-01,
          3.57147694e-01, 3.57147694e-01, 3.57147694e-01 ]
      - [ 4.62955376e-03, 7.78863067e-03, 1.47693753e-02, 4.40258496e-02,
          9.35226306e-02, 2.99213156e-02, 1.56265702e-02, 1.58125348e-02,
          1.93357058e-02, 2.97276340e-02, 4.13122512e-02, 1.46369888e-02,
          2.20770054e-02, 1.29353013e-02, 1.95907131e-02, 4.91331607e-01,
          7.13213027e-01, 9.76418078e-01, 1., 6.76261306e-01,
          3.85403186e-01, 1.55833632e-01, 5.50922900e-02, 3.88369486e-02,
          3.35407034e-02, 2.10147664e-01, 1.71223953e-01, 1.44076645e-01,
          1.36593312e-01, 1.12962142e-01, 4.86742184e-02, 3.05984374e-02,
          1.54113295e-02, 1.05662700e-02, 5.10885334e-03, 2.64865812e-02,
          1.43540092e-02, 9.15790536e-03, 7.05467816e-03, 4.67344094e-03,
          1.66277844e-03, 1.10852346e-03, 8.45408882e-04, 7.78387242e-04,
          5.42676135e-04, 3.57680954e-04, 8.47003248e-04, 3.38606536e-04,
          5.09461272e-04, 1.57343678e-03, 2.63860496e-03, 4.01435333e-04,
          2.31689843e-03, 1.06197363e-03, 1.75479369e-03, 1.50729110e-03,
          2.32200627e-03, 1.11537369e-03, 3.93845636e-04, 4.24874685e-04,
          7.98473120e-05, 9.99242984e-05, 1.78053393e-04, 1.02718338e-01,
          7.64261633e-02, 7.02906996e-02, 5.33087179e-02, 1.04441598e-01,
          1.07928731e-01, 7.13506564e-02, 7.25788355e-01, 6.86169207e-01,
          6.86169207e-01, 6.86169207e-01, 6.86169207e-01, 6.86169207e-01,
          6.86169207e-01, 6.86169207e-01, 6.86169207e-01, 6.86169207e-01,
          6.86169207e-01, 6.86169207e-01, 6.86169207e-01, 6.86169207e-01,
          6.86169207e-01, 6.86169207e-01 ]
      - [ 3.72195919e-03, 3.36859212e-03, 4.80078114e-03, 8.57070833e-03,
          1.90861505e-02, 4.21937853e-02, 1.63950231e-02, 1.25122778e-02,
          9.69352946e-03, 1.55402366e-02, 2.04695985e-02, 2.14295853e-02,
          2.54126079e-02, 8.30408651e-03, 1.02778981e-02, 3.97650331e-01,
          3.93618017e-01, 4.63232279e-01, 4.14290249e-01, 2.72243589e-01,
          1.63681909e-01, 6.80239573e-02, 2.32063569e-02, 1.20195048e-02,
          9.65852197e-03, 8.45126092e-01, 7.25685477e-01, 7.72011995e-01,
          8.73487532e-01, 6.79187238e-01, 3.87116075e-01, 2.32961535e-01,
          1.30152777e-01, 6.89975694e-02, 1.76192373e-02, 2.39490042e-03,
          1.46283302e-03, 7.11228466e-04, 6.50193891e-04, 4.15023736e-04,
          3.15013604e-04, 2.17251654e-04, 4.57608076e-05, 1.96620749e-04,
          9.49015957e-05, 6.77627031e-05, 0., 7.69788676e-05, 0.,
          4.47131693e-04, 4.49895655e-04, 4.56311856e-04, 6.58405013e-04,
          0., 0., 0., 6.59856596e-04, 9.05604466e-05, 3.35763471e-04,
          2.41477683e-04, 9.07625072e-05, 0., 0., 1.47367027e-02,
          7.96342082e-03, 7.97026977e-03, 5.39430883e-03, 8.09446629e-03,
          7.00726081e-03, 5.46338642e-03, 6.29120648e-01, 5.92475533e-01,
          5.92475533e-01, 5.92475533e-01, 5.92475533e-01, 5.92475533e-01,
          5.92475533e-01, 5.92475533e-01, 5.92475533e-01, 5.92475533e-01,
          5.92475533e-01, 5.92475533e-01, 5.92475533e-01, 5.92475533e-01,
          5.92475533e-01, 5.92475533e-01 ]
      - [ 1.75623642e-03, 3.86520778e-03, 4.31483891e-03, 1.00842947e-02,
          2.24994440e-02, 1.21822106e-02, 5.82437310e-03, 8.02469067e-03,
          5.02492907e-03, 9.88601986e-03, 2.76114810e-02, 1.38182752e-02,
          1.92703176e-02, 5.05043939e-03, 9.33561102e-03, 6.19439334e-02,
          8.20562392e-02, 1.60494104e-01, 1.99094623e-01, 1.34203941e-01,
          1.28420338e-01, 1.15349270e-01, 9.72352996e-02, 1.37597397e-01,
          1.10181250e-01, 4.94783707e-02, 2.61758137e-02, 2.30179876e-02,
          1.59497540e-02, 8.84080306e-03, 2.08344916e-03, 1.15606131e-03,
          3.24616354e-04, 2.55710096e-04, 9.88257525e-05, 2.14181215e-01,
          1.96764380e-01, 2.49978900e-01, 3.57022285e-01, 4.09994423e-01,
          2.74079621e-01, 1.77064717e-01, 8.53412896e-02, 5.26297130e-02,
          2.94383243e-02, 3.30554601e-03, 1.11162174e-03, 1.92570340e-04,
          0., 5.59272338e-03, 1.42558152e-02, 1.99764199e-03,
          7.00003095e-03, 0., 0., 0., 1.56816244e-02, 3.55677232e-02,
          1.69389099e-02, 3.13115120e-02, 9.30911116e-03, 1.27863826e-03,
          2.53153703e-04, 1.54905304e-01, 1.47145912e-01, 1.69476628e-01,
          1.88246921e-01, 4.08762187e-01, 4.74684060e-01, 6.37835085e-01,
          5.30247331e-01, 4.55046356e-01, 4.55046356e-01, 4.55046356e-01,
          4.55046356e-01, 4.55046356e-01, 4.55046356e-01, 4.55046356e-01,
          4.55046356e-01, 4.55046356e-01, 4.55046356e-01, 4.55046356e-01,
          4.55046356e-01, 4.55046356e-01, 4.55046356e-01, 4.55046356e-01 ]
      - [ 5.49959764e-03, 6.72933925e-03, 6.20674761e-03, 1.81181170e-02,
          7.60705173e-02, 2.66483687e-02, 7.50436913e-03, 5.18156076e-03,
          3.80311813e-03, 7.28343194e-03, 1.00960573e-02, 6.41722279e-03,
          4.66110324e-03, 3.03424359e-03, 3.07778083e-03, 4.37801003e-01,
          4.62920755e-01, 5.99909663e-01, 7.15470076e-01, 6.83536768e-01,
          5.95855772e-01, 2.10729018e-01, 5.35330810e-02, 2.37902720e-02,
          1.50704309e-02, 4.05311286e-02, 5.40020168e-02, 7.45635033e-02,
          1.40180171e-01, 1.69397935e-01, 1.43344969e-01, 1.18182786e-01,
          5.31325080e-02, 1.92843024e-02, 4.96861013e-03, 7.99642131e-02,
          5.00056036e-02, 2.14143526e-02, 1.43107902e-02, 1.35715352e-02,
          6.47122879e-03, 3.91645310e-03, 3.74101731e-03, 2.47293105e-03,
          1.69092312e-03, 2.13065627e-03, 1.70770159e-03, 2.09771399e-03,
          1.41623581e-03, 7.49819726e-03, 3.45791783e-03, 1.91303610e-03,
          2.76028900e-03, 2.53041228e-03, 1.39374193e-03, 3.59149044e-03,
          5.07168658e-03, 4.36614128e-03, 1.17304223e-03, 2.02473602e-03,
          7.61023199e-04, 9.52376518e-04, 8.48511700e-04, 3.14850390e-01,
          2.58233666e-01, 2.57002592e-01, 1.73570365e-01, 2.08135530e-01,
          1.61108047e-01, 9.17798281e-02, 6.90737963e-01, 2.34053150e-01,
          2.34053150e-01, 2.34053150e-01, 2.34053150e-01, 2.34053150e-01,
          2.34053150e-01, 2.34053150e-01, 2.34053150e-01, 2.34053150e-01,
          2.34053150e-01, 2.34053150e-01, 2.34053150e-01, 2.34053150e-01,
          2.34053150e-01, 2.34053150e-01 ]
      - [ 7.16379611e-03, 4.82116221e-03, 4.09477809e-03, 5.58351912e-03,
          5.55671053e-03, 7.20671192e-02, 1.09712165e-02, 6.56497013e-03,
          3.54535831e-03, 4.01430717e-03, 5.12722060e-02, 1.83574408e-02,
          1.45438258e-02, 4.04788041e-03, 5.80949988e-03, 1.24018434e-02,
          3.37295681e-02, 9.62686017e-02, 1.93982899e-01, 3.14124018e-01,
          4.14620072e-01, 3.62978250e-01, 2.90547758e-01, 4.01776254e-01,
          6.71219170e-01, 1.99459400e-02, 2.45168004e-02, 5.53078167e-02,
          1.39896140e-01, 2.53362089e-01, 2.93906838e-01, 3.44968230e-01,
          3.50895733e-01, 3.29278260e-01, 2.82160550e-01, 4.44786530e-03,
          2.16254289e-03, 1.02331396e-03, 1.83758442e-03, 4.03492805e-03,
          3.77484853e-03, 4.22431156e-03, 4.65586688e-03, 5.44577697e-03,
          4.13046218e-03, 6.05176715e-03, 4.01877379e-03, 3.65498173e-03,
          3.92801361e-03, 5.05475211e-04, 3.39066581e-04, 0.,
          7.44316319e-04, 9.09772934e-04, 3.75824771e-03, 5.81070688e-03,
          1.49191462e-03, 5.11885679e-04, 1.01220061e-03, 5.45973307e-04,
          6.15633326e-04, 2.18288391e-03, 2.05922290e-03, 7.68904854e-03,
          3.54644679e-03, 6.67426828e-03, 6.30145194e-03, 1.72032490e-02,
          2.55251434e-02, 3.25341560e-02, 8.52392077e-01, 5.13365388e-01,
          5.13365388e-01, 5.13365388e-01, 5.13365388e-01, 5.13365388e-01,
          5.13365388e-01, 5.13365388e-01, 5.13365388e-01, 5.13365388e-01,
          5.13365388e-01, 5.13365388e-01, 5.13365388e-01, 5.13365388e-01,
          5.13365388e-01, 5.13365388e-01 ]
      - [ 2.85227294e-03, 2.55333190e-03, 3.66771477e-03, 6.13349257e-03,
          1.07512474e-02, 3.87563258e-02, 1.34630911e-02, 1.35965236e-02,
          6.70879940e-03, 1.36682577e-02, 4.38400917e-02, 1.64932776e-02,
          1.60364136e-02, 6.43337052e-03, 9.54617281e-03, 1.88730881e-01,
          2.44491220e-01, 3.99988979e-01, 4.94780838e-01, 3.56260478e-01,
          2.74527282e-01, 1.58231497e-01, 7.93486908e-02, 5.43419831e-02,
          4.99259345e-02, 4.11747128e-01, 5.11217296e-01, 6.34095728e-01,
          1., 9.52228665e-01, 6.15776598e-01, 3.63766283e-01,
          1.97717875e-01, 8.53331983e-02, 2.58539617e-02, 1.41314662e-03,
          2.06569748e-04, 5.93474077e-04, 1.98933063e-04, 5.33318089e-04,
          2.31315425e-04, 1.19646407e-04, 0., 0., 0., 6.21979489e-05, 0.,
          0., 8.85913687e-05, 0., 0., 0., 0., 0., 6.10290037e-04, 0., 0.,
          0., 0., 0., 0., 0., 0., 7.28350319e-03, 3.54397809e-03,
          3.79334763e-03, 4.12610127e-03, 5.94379148e-03, 6.73809275e-03,
          4.09653690e-03, 7.13881433e-01, 6.53796554e-01, 6.53796554e-01,
          6.53796554e-01, 6.53796554e-01, 6.53796554e-01, 6.53796554e-01,
          6.53796554e-01, 6.53796554e-01, 6.53796554e-01, 6.53796554e-01,
          6.53796554e-01, 6.53796554e-01, 6.53796554e-01, 6.53796554e-01,
          6.53796554e-01 ]
      - [ 5.29106660e-03, 1.04377074e-02, 1.66836753e-02, 2.72207297e-02,
          2.07168758e-02, 2.26003695e-02, 1.10749174e-02, 8.04505125e-03,
          5.43955620e-03, 5.15146554e-03, 2.57862061e-02, 1.33971609e-02,
          1.25851380e-02, 3.91564844e-03, 1.31015317e-03, 8.39055777e-02,
          4.93440852e-02, 1.10613927e-02, 2.43359967e-03, 1.66103034e-03,
          6.20410661e-04, 9.77693271e-05, 0., 9.56888471e-05, 0.,
          3.62320035e-03, 1.62700703e-03, 7.20914803e-04, 6.20641047e-04,
          1.26139072e-04, 0., 0., 0., 0., 0., 9.52488631e-02,
          8.48244578e-02, 8.15565363e-02, 1.97955564e-01, 2.56505251e-01,
          2.42996499e-01, 2.28904963e-01, 2.60186791e-01, 4.06439781e-01,
          6.01578474e-01, 1., 1., 5.76328337e-01, 4.15046573e-01, 0.,
          2.24810001e-03, 1.46581803e-03, 1.41000340e-03, 4.30859439e-03,
          4.27168515e-03, 7.33838230e-03, 1.36600826e-02, 2.75393650e-02,
          6.35162890e-02, 8.08454603e-02, 1.10986359e-01, 1.64190516e-01,
          3.14239979e-01, 1.08333364e-01, 1.06200017e-01, 1.64786562e-01,
          2.09671527e-01, 3.00005138e-01, 2.17949480e-01, 9.17879716e-02,
          6.93717599e-01, 2.27129072e-01, 2.27129072e-01, 2.27129072e-01,
          2.27129072e-01, 2.27129072e-01, 2.27129072e-01, 2.27129072e-01,
          2.27129072e-01, 2.27129072e-01, 2.27129072e-01, 2.27129072e-01,
          2.27129072e-01, 2.27129072e-01, 2.27129072e-01, 2.27129072e-01 ]
      - [ 2.02348409e-03, 1.62719714e-03, 4.08201758e-03, 1.10034607e-02,
          2.19916701e-02, 2.53730230e-02, 7.13005941e-03, 7.32000265e-03,
          8.29838216e-03, 1.95460711e-02, 2.25066375e-02, 1.21587534e-02,
          1.40778106e-02, 7.71726202e-03, 1.33902961e-02, 2.42806867e-01,
          3.11754823e-01, 4.19457555e-01, 4.88050610e-01, 4.16284353e-01,
          3.19243371e-01, 1.83332041e-01, 9.66600999e-02, 9.18976739e-02,
          1.04432568e-01, 3.97120506e-01, 4.23212826e-01, 4.84352320e-01,
          6.30847275e-01, 5.91163993e-01, 4.09488320e-01, 2.63539672e-01,
          1.53902411e-01, 8.67648944e-02, 3.15495171e-02, 3.71321803e-03,
          1.42481760e-03, 1.46196259e-03, 1.86219462e-03, 8.25801049e-04,
          1.08266145e-03, 2.35789310e-04, 1.65551624e-04, 2.22289615e-04,
          3.00414831e-04, 1.83861906e-04, 3.34917393e-04, 2.08868310e-04,
          2.61882902e-04, 6.06605725e-04, 2.71269120e-04, 2.06353361e-04,
          5.95487887e-04, 3.63930449e-04, 0., 0., 3.97867174e-04,
          1.63812991e-04, 3.03677953e-04, 0., 0., 0., 1.83052733e-04,
          1.87111124e-02, 1.64783020e-02, 1.64641570e-02, 1.37420343e-02,
          1.56180477e-02, 1.25746978e-02, 8.97786487e-03, 7.52714336e-01,
          6.64891660e-01, 6.64891660e-01, 6.64891660e-01, 6.64891660e-01,
          6.64891660e-01, 6.64891660e-01, 6.64891660e-01, 6.64891660e-01,
          6.64891660e-01, 6.64891660e-01, 6.64891660e-01, 6.64891660e-01,
          6.64891660e-01, 6.64891660e-01, 6.64891660e-01 ]
      - [ 4.10099374e-03, 1.54499300e-02, 1.46168163e-02, 3.46876048e-02,
          6.23198785e-02, 1.44440858e-02, 1.67884342e-02, 2.01819614e-02,
          1.33509832e-02, 1.70555077e-02, 1.28168702e-01, 1.58125348e-02,
          8.45319498e-03, 6.08202582e-03, 1.01169096e-02, 4.23998162e-02,
          3.64581309e-02, 2.31882110e-02, 8.10003560e-03, 2.94858799e-03,
          1.98238622e-03, 9.97946016e-04, 6.14127202e-04, 6.79450517e-04,
          8.28216493e-04, 6.66145096e-03, 7.87688536e-04, 5.86545793e-04,
          2.06575249e-04, 3.91853944e-04, 8.12924991e-04, 2.72768969e-03,
          5.38525311e-03, 3.30302981e-03, 1.46426749e-03, 6.03653848e-01,
          3.64463955e-01, 2.47642443e-01, 2.01139554e-01, 1.06339946e-01,
          2.88609024e-02, 1.23884762e-02, 1.95708522e-03, 9.34335694e-05,
          4.50969419e-05, 0., 0., 0., 0., 6.33389711e-01, 6.58042610e-01,
          2.91863918e-01, 7.82180056e-02, 6.11874228e-03, 0., 0.,
          2.40815446e-01, 2.34707654e-01, 8.88182521e-02, 3.43483351e-02,
          5.17560728e-03, 1.61924341e-03, 3.84706917e-04, 1.08139932e-01,
          7.15556443e-02, 8.96830186e-02, 8.68124068e-02, 9.88797992e-02,
          4.90489006e-02, 2.25246400e-02, 7.86976874e-01, 6.28249884e-01,
          6.28249884e-01, 6.28249884e-01, 6.28249884e-01, 6.28249884e-01,
          6.28249884e-01, 6.28249884e-01, 6.28249884e-01, 6.28249884e-01,
          6.28249884e-01, 6.28249884e-01, 6.28249884e-01, 6.28249884e-01,
          6.28249884e-01, 6.28249884e-01 ]
      - [ 1.89401191e-02, 2.59613171e-02, 3.59713398e-02, 8.75455216e-02,
          7.42675215e-02, 4.52655032e-02, 1.14843454e-02, 1.48995146e-02,
          8.48217309e-03, 1.74776223e-02, 3.43403332e-02, 1.67975221e-02,
          7.47407181e-03, 6.51824579e-04, 0., 3.46393371e-03,
          9.24916647e-04, 1.30832929e-03, 1.21533894e-03, 1.38253020e-03,
          1.98293058e-03, 2.73425481e-03, 7.81224051e-04, 1.14688755e-03,
          1.86399871e-03, 3.44652421e-04, 5.90928656e-04, 0., 0., 0., 0.,
          0., 0., 0., 0., 4.61402386e-01, 2.48872712e-01, 2.47695073e-01,
          3.31461459e-01, 4.29126084e-01, 3.18844825e-01, 2.56511897e-01,
          1.90378800e-01, 1.57712445e-01, 1.19968250e-01, 4.89906035e-02,
          1.61582157e-02, 4.93967207e-04, 2.06448356e-04, 5.21239489e-02,
          6.22296929e-02, 4.34337296e-02, 2.74620596e-02, 4.30342229e-03,
          1.42218568e-03, 0., 6.11613393e-02, 8.38748589e-02,
          8.42675120e-02, 6.73190355e-02, 6.75602183e-02, 3.96013707e-02,
          2.03469638e-02, 1.50332883e-01, 8.98132324e-02, 5.55644818e-02,
          5.19222617e-02, 8.21830630e-02, 1.03966758e-01, 1.93066493e-01,
          7.20301986e-01, 2.27513745e-01, 2.27513745e-01, 2.27513745e-01,
          2.27513745e-01, 2.27513745e-01, 2.27513745e-01, 2.27513745e-01,
          2.27513745e-01, 2.27513745e-01, 2.27513745e-01, 2.27513745e-01,
          2.27513745e-01, 2.27513745e-01, 2.27513745e-01, 2.27513745e-01 ]
      - [ 1.07769191e-01, 2.32303083e-01, 3.70155156e-01, 3.38420540e-01,
          1.84787050e-01, 2.84207553e-01, 1.04197428e-01, 3.28225583e-01,
          8.14320073e-02, 2.74395961e-02, 3.09892874e-02, 2.05537137e-02,
          3.67894210e-02, 4.97722393e-03, 2.90679303e-03, 2.79237758e-02,
          3.04513387e-02, 4.60153930e-02, 2.60325614e-02, 1.03648286e-02,
          1.03236327e-03, 1.35573454e-03, 1.66861457e-04, 7.96131149e-04,
          0., 9.56984935e-04, 1.64081180e-03, 1.66611397e-03, 0., 0., 0.,
          0., 0., 0., 0., 2.21485332e-01, 1.17623247e-01, 6.83542490e-02,
          4.76269163e-02, 3.40158343e-02, 1.83351487e-02, 8.77407007e-03,
          5.16388239e-03, 8.46635457e-03, 8.73643626e-03, 1.04638897e-02,
          6.59793802e-03, 6.85791066e-03, 5.73238218e-03, 0.,
          8.90675816e-04, 1.35506724e-03, 3.91040929e-03, 2.38983380e-03,
          3.94893577e-03, 0., 1.63292941e-02, 6.99215382e-03,
          9.97085776e-03, 4.78062639e-03, 3.23434849e-03, 6.74600014e-03,
          3.60617461e-03, 1.85147882e-01, 1.55505061e-01, 1.10453345e-01,
          7.63571411e-02, 7.88426399e-02, 5.94537631e-02, 3.51903327e-02,
          6.55874491e-01, 2.24843677e-02, 2.24843677e-02, 2.24843677e-02,
          2.24843677e-02, 2.24843677e-02, 2.24843677e-02, 2.24843677e-02,
          2.24843677e-02, 2.24843677e-02, 2.24843677e-02, 2.24843677e-02,
          2.24843677e-02, 2.24843677e-02, 2.24843677e-02, 2.24843677e-02 ]
      - [ 2.82222941e-03, 1.67890254e-03, 3.33128497e-03, 4.63884743e-03,
          5.85299451e-03, 1.45704774e-02, 4.23990656e-03, 4.73540463e-03,
          2.59392639e-03, 3.77101451e-03, 1.26848128e-02, 1.06918141e-02,
          1.38040604e-02, 6.11968292e-03, 7.73392431e-03, 1.29259661e-01,
          1.47072449e-01, 1.82213545e-01, 2.69250095e-01, 3.84461671e-01,
          3.99804056e-01, 2.37348467e-01, 1.28636822e-01, 1.09794252e-01,
          1.15616284e-01, 1.92025214e-01, 2.08002970e-01, 2.65458435e-01,
          4.49564904e-01, 5.57447433e-01, 7.51999259e-01, 8.22183847e-01,
          5.84516764e-01, 2.57770061e-01, 8.60961899e-02, 6.75793970e-04,
          5.92713826e-04, 5.10859361e-04, 8.56202678e-04, 8.74433143e-04,
          7.46681646e-04, 7.43823824e-04, 6.02597545e-04, 8.41484987e-04,
          6.24852080e-04, 9.81560559e-04, 7.80210074e-04, 6.08214003e-04,
          6.35491568e-04, 0., 0., 6.00890606e-04, 0., 5.29873592e-04,
          8.75557424e-04, 2.25619692e-03, 2.89642310e-04, 5.96269034e-04,
          7.36912480e-04, 3.17987957e-04, 1.19519878e-04, 2.99144449e-04,
          2.66520190e-04, 2.79892911e-03, 3.01886024e-03, 3.10980319e-03,
          3.07816244e-03, 5.40062785e-03, 7.32337730e-03, 6.07978879e-03,
          6.14577532e-01, 4.27565038e-01, 4.27565038e-01, 4.27565038e-01,
          4.27565038e-01, 4.27565038e-01, 4.27565038e-01, 4.27565038e-01,
          4.27565038e-01, 4.27565038e-01, 4.27565038e-01, 4.27565038e-01,
          4.27565038e-01, 4.27565038e-01, 4.27565038e-01, 4.27565038e-01 ]
      - [ 1.50140200e-03, 1.69105863e-03, 3.07515240e-03, 8.80331732e-03,
          1.48309181e-02, 2.02527791e-02, 6.82582986e-03, 7.99422525e-03,
          7.40198232e-03, 1.09043783e-02, 2.20582914e-02, 1.73733756e-02,
          1.57432836e-02, 8.44867341e-03, 2.00533159e-02, 5.74715398e-02,
          6.88687563e-02, 8.89086574e-02, 1.04832180e-01, 1.15891747e-01,
          1.15544856e-01, 7.38375857e-02, 3.94558385e-02, 6.60833791e-02,
          1.08828537e-01, 4.00074832e-02, 2.39270478e-02, 1.96019970e-02,
          1.67807024e-02, 1.00581134e-02, 4.24139993e-03, 2.33926903e-03,
          7.64096912e-04, 5.51743666e-04, 3.48930917e-04, 2.41750069e-02,
          4.66024280e-02, 7.79218972e-02, 1.77284971e-01, 2.01777920e-01,
          1.50063038e-01, 1.82081416e-01, 2.01374263e-01, 2.01501623e-01,
          1.87483042e-01, 1.03809789e-01, 6.01088069e-02, 4.64612953e-02,
          1.17455255e-02, 1.31644111e-03, 5.15113957e-03, 2.68693850e-03,
          2.58462667e-03, 7.89793034e-04, 3.26261367e-03, 0.,
          5.50444052e-03, 1.82195269e-02, 1.36200460e-02, 8.53147637e-03,
          6.85870135e-03, 3.00971745e-03, 2.97942455e-03, 2.36407127e-02,
          2.15512179e-02, 3.18673998e-02, 4.74691540e-02, 1.03906013e-01,
          1.81419283e-01, 1.90984040e-01, 4.79355901e-01, 6.05467618e-01,
          6.05467618e-01, 6.05467618e-01, 6.05467618e-01, 6.05467618e-01,
          6.05467618e-01, 6.05467618e-01, 6.05467618e-01, 6.05467618e-01,
          6.05467618e-01, 6.05467618e-01, 6.05467618e-01, 6.05467618e-01,
          6.05467618e-01, 6.05467618e-01 ]
      - [ 1.03500513e-02, 1.07478453e-02, 7.79214408e-03, 1.37217697e-02,
          1.28852949e-02, 1.83174480e-02, 2.21305573e-03, 2.78921286e-03,
          6.38674013e-04, 1.17609429e-03, 4.94513335e-03, 0.,
          9.78448777e-04, 0., 2.51253805e-04, 2.24200431e-02,
          1.10358577e-02, 4.74499492e-03, 3.33358627e-03, 3.98178818e-04,
          2.37957734e-04, 1.87496524e-04, 0., 0., 0., 0., 0., 0., 0., 0.,
          0., 0., 0., 0., 0., 3.33008528e-01, 2.55098611e-01,
          1.72204331e-01, 3.08197469e-01, 2.75954485e-01, 2.15278283e-01,
          2.19758213e-01, 2.93650895e-01, 3.99010003e-01, 4.64392483e-01,
          8.10539722e-01, 8.69904399e-01, 3.31638247e-01, 1.18719079e-01,
          1.83633994e-03, 1.23179425e-03, 5.15361596e-03, 1.21681141e-02,
          2.23095100e-02, 2.45759934e-02, 1.75914224e-02, 3.50039974e-02,
          3.70066054e-02, 5.51583245e-02, 6.52890652e-02, 9.30025056e-02,
          1.92190588e-01, 3.54513735e-01, 3.45095485e-01, 4.65801835e-01,
          5.52021921e-01, 4.70035374e-01, 4.64964807e-01, 2.40504801e-01,
          1.25777870e-01, 7.21282721e-01, 2.40856528e-01, 2.40856528e-01,
          2.40856528e-01, 2.40856528e-01, 2.40856528e-01, 2.40856528e-01,
          2.40856528e-01, 2.40856528e-01, 2.40856528e-01, 2.40856528e-01,
          2.40856528e-01, 2.40856528e-01, 2.40856528e-01, 2.40856528e-01,
          2.40856528e-01 ]
      - [ 6.67467490e-02, 1.80496141e-01, 4.14765179e-02, 6.92741498e-02,
          9.18766707e-02, 3.10990453e-01, 3.61780196e-01, 9.03194726e-01,
          5.24796247e-01, 2.96740621e-01, 1.50989711e-01, 8.30608234e-02,
          1.83467448e-01, 1.10930398e-01, 5.03613353e-02, 4.53156121e-02,
          3.52677852e-02, 3.51920314e-02, 2.83798706e-02, 2.28848737e-02,
          1.69244818e-02, 1.41436951e-02, 6.46575913e-03, 6.52585551e-03,
          1.06062591e-02, 6.41811937e-02, 3.63752469e-02, 2.28445567e-02,
          1.50709478e-02, 9.90593433e-03, 4.98106843e-03, 3.22938571e-03,
          4.02012747e-03, 1.80958607e-03, 6.99361146e-04, 1.05992882e-02,
          1.99205196e-03, 1.43078936e-03, 1.91840762e-03, 1.83680141e-03,
          2.78835790e-03, 1.34610943e-03, 8.10107973e-04, 2.39304756e-03,
          2.31007184e-03, 3.29892687e-03, 3.27776000e-03, 2.38483772e-03,
          5.12597617e-03, 0., 6.63712213e-04, 2.01953319e-03,
          1.45697605e-03, 0., 2.94266082e-03, 7.58285169e-03,
          4.86729376e-04, 4.00800083e-04, 4.95337765e-04, 1.06872572e-03,
          1.60677743e-03, 5.02697250e-04, 8.95747624e-04, 5.76957799e-02,
          2.72342321e-02, 2.91777682e-02, 1.43243941e-02, 1.81509703e-02,
          1.08297812e-02, 1.08978990e-02, 7.22943127e-01, 6.19470365e-02,
          6.19470365e-02, 6.19470365e-02, 6.19470365e-02, 6.19470365e-02,
          6.19470365e-02, 6.19470365e-02, 6.19470365e-02, 6.19470365e-02,
          6.19470365e-02, 6.19470365e-02, 6.19470365e-02, 6.19470365e-02,
          6.19470365e-02, 6.19470365e-02 ]
      - [ 4.68951790e-03, 6.68874010e-03, 8.85655358e-03, 1.92572232e-02,
          5.13247214e-02, 1.61856022e-02, 5.30797103e-03, 5.63587341e-03,
          8.03627353e-03, 1.60238501e-02, 8.32287129e-03, 4.99443291e-03,
          5.80290798e-03, 2.10638694e-03, 3.26214684e-03, 6.49291158e-01,
          6.80491030e-01, 6.30560696e-01, 4.37303662e-01, 2.21724570e-01,
          8.53050202e-02, 3.35400142e-02, 1.13465795e-02, 1.21333767e-02,
          1.41983852e-02, 8.92036378e-01, 6.45649433e-01, 5.13736725e-01,
          4.09799278e-01, 2.21596181e-01, 9.04632881e-02, 3.88599858e-02,
          1.62731260e-02, 8.12532194e-03, 2.26253318e-03, 9.12153348e-03,
          4.66675963e-03, 3.83073767e-03, 4.60123923e-03, 3.36048147e-03,
          2.30184314e-03, 8.58099782e-04, 6.32610521e-04, 6.79535442e-04,
          5.15407708e-04, 6.69122208e-04, 4.38787101e-04, 6.08101662e-04,
          4.76530608e-04, 1.10379944e-03, 1.03658112e-03, 2.25292359e-04,
          9.75212140e-04, 1.58932712e-03, 1.31309358e-03, 3.38367000e-03,
          5.42978989e-04, 1.07308594e-03, 9.94648086e-04, 7.94823107e-04,
          1.79246708e-04, 2.24316900e-04, 5.99559629e-04, 4.36552279e-02,
          3.37176174e-02, 2.82745510e-02, 1.88206695e-02, 2.28063334e-02,
          1.71335377e-02, 8.89004860e-03, 7.60445237e-01, 6.01187170e-01,
          6.01187170e-01, 6.01187170e-01, 6.01187170e-01, 6.01187170e-01,
          6.01187170e-01, 6.01187170e-01, 6.01187170e-01, 6.01187170e-01,
          6.01187170e-01, 6.01187170e-01, 6.01187170e-01, 6.01187170e-01,
          6.01187170e-01, 6.01187170e-01 ]
      - [ 5.09613380e-03, 3.93507537e-03, 4.54611704e-03, 8.52208678e-03,
          1.28041329e-02, 1.28297415e-02, 1.45715359e-03, 1.30848598e-03,
          8.59423424e-04, 3.89562105e-04, 1.22849634e-02, 1.35800487e-03,
          4.05119092e-04, 9.71603004e-05, 0., 1.03266081e-02,
          6.61762245e-03, 2.86026718e-03, 1.86333095e-03, 4.94588516e-04,
          7.38934032e-05, 0., 3.58302968e-05, 0., 0., 2.05494158e-04, 0.,
          7.15532078e-05, 0., 0., 0., 0., 0., 0., 0., 1.72349483e-01,
          1.07200168e-01, 9.13649648e-02, 1.85191020e-01, 2.62106061e-01,
          3.45341802e-01, 4.55001235e-01, 4.45522130e-01, 7.14280903e-01,
          5.48452437e-01, 6.52816534e-01, 4.58942473e-01, 7.90297911e-02,
          4.25898023e-02, 6.98546022e-02, 4.89614196e-02, 7.71082938e-02,
          1.41067162e-01, 3.43824551e-02, 6.27489090e-02, 6.33672401e-02,
          8.42939168e-02, 1.13300294e-01, 2.07110956e-01, 2.93079436e-01,
          4.66597825e-01, 5.47126472e-01, 6.98469877e-01, 1.06078774e-01,
          1.24795817e-01, 1.15200438e-01, 7.61335418e-02, 1.17270835e-01,
          1.08657561e-01, 8.51817876e-02, 6.03324354e-01, 4.44505632e-01,
          4.44505632e-01, 4.44505632e-01, 4.44505632e-01, 4.44505632e-01,
          4.44505632e-01, 4.44505632e-01, 4.44505632e-01, 4.44505632e-01,
          4.44505632e-01, 4.44505632e-01, 4.44505632e-01, 4.44505632e-01,
          4.44505632e-01, 4.44505632e-01 ]
      - [ 1.08795976e-02, 2.26297192e-02, 2.39060838e-02, 1.38717350e-02,
          5.59254689e-03, 5.50279021e-02, 2.68617980e-02, 8.20166431e-03,
          1.86686253e-03, 2.50018726e-04, 2.45293044e-02, 1.65596362e-02,
          5.54673327e-03, 0., 2.67062598e-04, 5.17662205e-02,
          9.50553119e-02, 1.96995050e-01, 1.99489713e-01, 1.07783101e-01,
          3.27544287e-02, 4.88269655e-03, 1.10379257e-03, 3.90105706e-04,
          3.17013008e-04, 5.27539931e-04, 1.05525099e-03, 1.22459838e-04,
          1.58139912e-04, 0., 9.82610291e-05, 0., 0., 0., 0.,
          1.81834549e-01, 1.23048745e-01, 9.31426212e-02, 1.42625451e-01,
          1.74106255e-01, 1.85231522e-01, 1.81519404e-01, 2.01059908e-01,
          3.12963605e-01, 3.82585466e-01, 4.81869966e-01, 7.67999530e-01,
          5.11283219e-01, 3.46755981e-01, 4.87970421e-03, 2.94592115e-03,
          8.96380283e-03, 5.74832316e-03, 0., 0., 7.47930678e-03,
          3.57661843e-02, 3.75560746e-02, 6.20488822e-02, 6.11396655e-02,
          6.75536618e-02, 7.85895064e-02, 1.45780161e-01, 6.95885047e-02,
          5.29346205e-02, 6.18541054e-02, 7.92782307e-02, 1.74319819e-01,
          3.36479813e-01, 5.09405911e-01, 6.79419279e-01, 2.21098796e-01,
          2.21098796e-01, 2.21098796e-01, 2.21098796e-01, 2.21098796e-01,
          2.21098796e-01, 2.21098796e-01, 2.21098796e-01, 2.21098796e-01,
          2.21098796e-01, 2.21098796e-01, 2.21098796e-01, 2.21098796e-01,
          2.21098796e-01, 2.21098796e-01 ]
      - [ 3.99488909e-03, 2.65388889e-03, 3.64458654e-03, 4.84403921e-03,
          3.86718637e-03, 3.41060869e-02, 4.62029967e-03, 3.56268487e-03,
          1.77989888e-03, 1.76487060e-03, 1.27213150e-02, 7.73432013e-03,
          5.45361172e-03, 1.60978164e-03, 1.77745777e-03, 1.63505543e-02,
          3.46712694e-02, 7.59313554e-02, 1.31314203e-01, 1.80961728e-01,
          3.71035963e-01, 5.32676756e-01, 6.83955908e-01, 9.82376456e-01,
          1., 2.97910394e-03, 2.28029652e-03, 1.40779954e-03,
          1.62661204e-03, 1.01122446e-03, 7.72890984e-04, 6.42422878e-04,
          4.56985959e-04, 5.39972447e-04, 2.08686251e-04, 2.93686776e-03,
          2.37767771e-03, 3.84247070e-03, 4.00711037e-03, 6.02902705e-03,
          3.82735464e-03, 2.23789294e-03, 1.75256154e-03, 2.01239227e-03,
          1.81728543e-03, 2.86366558e-03, 3.12982081e-03, 3.25314258e-03,
          2.67674495e-03, 2.95248057e-04, 3.96097545e-04, 0.,
          4.34755173e-04, 0., 8.78076942e-04, 0., 1.45237878e-04,
          5.97984821e-04, 4.43419762e-04, 1.06300999e-04, 2.39727611e-04,
          0., 8.01861344e-04, 9.35661048e-03, 8.76395218e-03,
          1.36445407e-02, 1.46039799e-02, 3.43499109e-02, 5.27331568e-02,
          5.99566214e-02, 6.69885874e-01, 4.26071614e-01, 4.26071614e-01,
          4.26071614e-01, 4.26071614e-01, 4.26071614e-01, 4.26071614e-01,
          4.26071614e-01, 4.26071614e-01, 4.26071614e-01, 4.26071614e-01,
          4.26071614e-01, 4.26071614e-01, 4.26071614e-01, 4.26071614e-01,
          4.26071614e-01 ]
      - [ 5.16497483e-03, 3.98613093e-03, 3.35640856e-03, 5.41180605e-03,
          6.26593502e-03, 3.51598524e-02, 5.55226207e-03, 4.49108426e-03,
          2.22979113e-03, 2.52230442e-03, 3.76127213e-02, 9.61062219e-03,
          6.34407625e-03, 2.10670475e-03, 1.31579698e-03, 1.28406882e-02,
          3.14118117e-02, 7.45475218e-02, 1.30184829e-01, 2.40000278e-01,
          5.19918442e-01, 1., 1., 1., 5.99880636e-01, 4.08437615e-03,
          3.39535717e-03, 3.62010114e-03, 3.78440996e-03, 1.26682443e-03,
          6.22445834e-04, 1.56936678e-03, 2.05995981e-03, 1.33479550e-03,
          3.64140753e-04, 2.62799882e-03, 3.63024953e-03, 3.57589475e-03,
          6.15969440e-03, 4.97317035e-03, 3.09724128e-03, 2.53654434e-03,
          2.17932067e-03, 3.39819025e-03, 2.84298090e-03, 3.64354835e-03,
          4.43729479e-03, 4.13909415e-03, 4.44828998e-03, 0., 0., 0., 0.,
          6.18164951e-04, 1.02144910e-03, 0., 6.75809162e-04,
          9.73873131e-04, 8.59702064e-04, 1.23657798e-03, 1.11548114e-03,
          1.74495028e-04, 2.48743757e-03, 8.48979782e-03, 6.30231993e-03,
          7.25596258e-03, 8.42519850e-03, 1.50880860e-02, 2.28969865e-02,
          2.56524626e-02, 5.50551057e-01, 3.53225589e-01, 3.53225589e-01,
          3.53225589e-01, 3.53225589e-01, 3.53225589e-01, 3.53225589e-01,
          3.53225589e-01, 3.53225589e-01, 3.53225589e-01, 3.53225589e-01,
          3.53225589e-01, 3.53225589e-01, 3.53225589e-01, 3.53225589e-01,
          3.53225589e-01 ]
      - [ 7.94763118e-03, 5.51154837e-03, 4.59918659e-03, 9.27591603e-03,
          1.18149556e-02, 1.23408325e-02, 4.50999569e-03, 5.95465116e-03,
          2.69167637e-03, 4.60831774e-03, 2.98535340e-02, 5.79068996e-03,
          3.34349927e-03, 4.27667372e-04, 1.20199821e-03, 2.05277465e-02,
          2.12395843e-02, 1.58328097e-02, 1.97070166e-02, 1.14293247e-02,
          5.04144048e-03, 1.53768575e-03, 1.06456317e-03, 8.77895975e-04,
          4.07661573e-04, 1.69596937e-03, 6.78497890e-04, 4.72430198e-04,
          8.13437509e-04, 2.47984513e-04, 6.31791845e-05, 0.,
          1.21406512e-04, 0., 1.66323749e-04, 2.21105620e-01,
          1.68340787e-01, 1.10520914e-01, 2.27816001e-01, 3.30711305e-01,
          2.67640859e-01, 2.05801055e-01, 2.39799753e-01, 4.81579214e-01,
          5.37333548e-01, 7.09621429e-01, 6.82551861e-01, 4.43039030e-01,
          2.93931782e-01, 6.58878777e-03, 6.73474697e-03, 3.68222520e-02,
          7.34583288e-02, 1.95951596e-01, 1.93153262e-01, 2.11595640e-01,
          7.06878081e-02, 9.37941223e-02, 1.15132235e-01, 1.72381639e-01,
          1.43934742e-01, 1.42187968e-01, 1.22988656e-01, 4.75275703e-02,
          5.02913073e-02, 6.53175488e-02, 6.46004006e-02, 1.26169011e-01,
          1.85596734e-01, 1.79263696e-01, 5.12572408e-01, 3.95463914e-01,
          3.95463914e-01, 3.95463914e-01, 3.95463914e-01, 3.95463914e-01,
          3.95463914e-01, 3.95463914e-01, 3.95463914e-01, 3.95463914e-01,
          3.95463914e-01, 3.95463914e-01, 3.95463914e-01, 3.95463914e-01,
          3.95463914e-01, 3.95463914e-01 ]
      - [ 8.66223592e-03, 8.45711958e-03, 1.09117096e-02, 1.60181504e-02,
          2.29530372e-02, 2.91994791e-02, 6.59195846e-03, 4.33565443e-03,
          1.70379132e-03, 1.45740446e-03, 8.51105712e-03, 4.51598223e-03,
          1.34720467e-03, 6.46204164e-04, 0., 4.18734439e-02,
          3.02590691e-02, 1.48439938e-02, 8.08977149e-03, 1.37060916e-03,
          4.91458166e-04, 5.80859662e-04, 5.95759921e-05, 0., 0.,
          1.70840314e-04, 0., 0., 0., 0., 0., 0., 0., 0., 0.,
          1.32765368e-01, 1.36964381e-01, 1.08863249e-01, 1.87280953e-01,
          1.97663754e-01, 1.56978980e-01, 1.36363804e-01, 1.80683166e-01,
          2.29421303e-01, 2.72179335e-01, 4.04207885e-01, 3.85081559e-01,
          1.28140241e-01, 2.94722244e-02, 4.74077999e-04, 0., 0., 0.,
          8.53263075e-04, 0., 0., 1.65577382e-02, 1.40186362e-02,
          1.30532673e-02, 9.04640369e-03, 1.00081582e-02, 7.94832408e-03,
          5.57935657e-03, 2.63518363e-01, 1.92149833e-01, 2.46840894e-01,
          3.27149421e-01, 5.58191359e-01, 6.04977787e-01, 4.95392799e-01,
          7.36471176e-01, 2.30300725e-01, 2.30300725e-01, 2.30300725e-01,
          2.30300725e-01, 2.30300725e-01, 2.30300725e-01, 2.30300725e-01,
          2.30300725e-01, 2.30300725e-01, 2.30300725e-01, 2.30300725e-01,
          2.30300725e-01, 2.30300725e-01, 2.30300725e-01, 2.30300725e-01 ]
   decision_functions:
      -
         sv_count: 1
         rho: 1.3279904277857901e+00
         alpha: [ 1. ]
         index: [ 0 ]
      -
         sv_count: 1
         rho: -7.4664770999324181e-01
         alpha: [ 1. ]
         index: [ 1 ]
      -
         sv_count: 1
         rho: -3.0855999233149833e+00
         alpha: [ 1. ]
         index: [ 2 ]
      -
         sv_count: 1
         rho: 8.9708406968417165e-01
         alpha: [ 1. ]
         index: [ 3 ]
      -
         sv_count: 1
         rho: -2.6756416589070886e+00
         alpha: [ 1. ]
         index: [ 4 ]
      -
         sv_count: 1
         rho: -1.8454329354059928e+00
         alpha: [ 1. ]
         index: [ 5 ]
      -
         sv_count: 1
         rho: 8.0967097244665509e-01
         alpha: [ 1. ]
         index: [ 6 ]
      -
         sv_count: 1
         rho: -1.9965861992026177e+00
         alpha: [ 1. ]
         index: [ 7 ]
      -
         sv_count: 1
         rho: 9.0701726027801577e-01
         alpha: [ 1. ]
         index: [ 8 ]
      -
         sv_count: 1
         rho: 1.0881890406220103e+00
         alpha: [ 1. ]
         index: [ 9 ]
